tree
version=v3
num_class=1
num_tree_per_iteration=1
label_index=0
max_feature_idx=88
objective=regression
feature_names=Column_0 Column_1 Column_2 Column_3 Column_4 Column_5 Column_6 Column_7 Column_8 Column_9 Column_10 Column_11 Column_12 Column_13 Column_14 Column_15 Column_16 Column_17 Column_18 Column_19 Column_20 Column_21 Column_22 Column_23 Column_24 Column_25 Column_26 Column_27 Column_28 Column_29 Column_30 Column_31 Column_32 Column_33 Column_34 Column_35 Column_36 Column_37 Column_38 Column_39 Column_40 Column_41 Column_42 Column_43 Column_44 Column_45 Column_46 Column_47 Column_48 Column_49 Column_50 Column_51 Column_52 Column_53 Column_54 Column_55 Column_56 Column_57 Column_58 Column_59 Column_60 Column_61 Column_62 Column_63 Column_64 Column_65 Column_66 Column_67 Column_68 Column_69 Column_70 Column_71 Column_72 Column_73 Column_74 Column_75 Column_76 Column_77 Column_78 Column_79 Column_80 Column_81 Column_82 Column_83 Column_84 Column_85 Column_86 Column_87 Column_88
feature_infos=[-1000:223] [-1000:100] [-1000:41.439998626708984] [-1000:290] [-1000:300] [-1000:298] [-1000:97] [-1000:100] [-1000:36] [-1000:46] [-1000:2] [-1000:7.690000057220459] [-1000:100] [-1000:100] [-1000:9507] [-1000:252] [-1000:1501] [-1000:27.899999618530273] [-1000:140] [-1000:24.989999771118164] [-1000:21.200000762939453] [-1000:848] [-1000:28.799999237060547] [-1000:6.3000001907348633] [-1000:17.600000381469727] [-1000:27.5] [-1000:44.099998474121094] [-1000:440] [-1000:71.699996948242188] [-1000:23.200000762939453] [-1000:249.89999389648438] [-1000:152.89999389648438] [-1000:994] [-1000:1201] [17:100] [0:1] [-1000:1] [-1000:1] [-3269.10009765625:17.340000152587891] [1:336] [1:2] [-1000:5.5833334922790527] [0:10] [-1000:298] [-1000:162] none [-1000:3.8265767097473145] [-1000:10] [-1000:1.2951943874359131] [-1000:3.1999998092651367] [-1000:5.3998236656188965] [-1000:0.21042710542678833] [-1000:0.40000033378601074] [-1000:0.96179020404815674] [-1000:1.2772877216339111] [-1000:1.5145225524902344] [-1000:7.5666675567626953] [-1000:4.7249689102172852] [-1000:8.5777587890625] none none [-1000:0] [-1000:0] none [-1000:197] [-1000:10] [-1000:47.444427490234375] [-1000:3.1666665077209473] [-1000:876] none [-1000:0] [-1000:0] none [-1000:66.666664123535156] [-1000:1.25] [-1000:49.805557250976562] [-19323.83203125:1354.916015625] [-1000:290.6666259765625] [-1000:1.4444444179534912] [-1000:159] [-1000:2.25] [-1000:38.008228302001953] [-1000:2.0637857913970947] [-4559.240234375:11779.83203125] [-1000:741.2685546875] [-1000:444.74072265625] [-1000:28.74073600769043] [-40381.16796875:41248.83203125] [-1928.7501220703125:735.833251953125]
tree_sizes=2881 2926 2878 2848 2883 2865 2898 2866 2906 2879 2889 2902 2890 2888 2906 2894 2851 2904 2883 2915 2877 2896 2887 2893 2876 2876 2879 2859 2897 2872 2905 2911 2907 2890 2929 2918 2902 2889 2932 2892 2897 2908 2865 2889 2907 2903 2925 2900 2844 2937 2875 2888 2887 2874 2868 2853 2872 2874 2910 2915 2884 2934 2935 2920 2916 2903 2885 2907 2888 2915 2902 2900 2924 2918 2906 2879 2921 2901 2899 2894 2890 2885 2916 2936 2886 2887 2927 2946 2906 2914 2921 2910 2874 2947 2901 2909 2952 2908 2915 2907

Tree=0
num_leaves=31
num_cat=0
split_feature=39 39 65 85 11 12 10 33 27 31 38 88 9 20 13 8 31 29 35 76 35 34 53 16 30 17 35 8 85 25
split_gain=82.1965 18.0321 11.3089 7.14607 5.72486 5.44967 4.43481 4.37964 4.05231 5.53128 3.88861 3.64208 3.35492 4.54648 4.68289 3.60877 3.49918 3.31866 2.90378 2.39477 2.31693 5.90469 2.29861 3.41529 2.56518 2.59126 2.26256 2.17391 2.16059 3.15312
threshold=73.500000000000014 53.500000000000007 5.2500000000000009 -6.8449127674102774 7.305000066757203 -1.0000000180025095e-35 0.55500000715255748 131.50000000000003 6.7900002002716073 20.550000190734867 -9.0450000762939435 2.25000011920929 12.500000000000002 0.024999999441206459 93.549999237060561 -4.9500000476837149 30.750000000000004 14.924999713897707 1.0000000180025095e-35 -751.91674804687489 1.0000000180025095e-35 85.36999893188478 0.0052348007448017606 41.500000000000007 150.15000152587893 4.8300001621246347 1.0000000180025095e-35 -22.499999999999996 -12.166666030883787 3.8349999189376835
decision_type=2 2 2 2 2 2 2 2 2 2 2 2 2 2 2 2 2 2 2 2 2 2 2 2 2 2 2 2 2 2
left_child=1 5 3 6 -5 -1 -2 -8 9 20 11 -11 -3 16 -15 27 17 -14 -13 -12 21 -6 23 24 -7 -26 -9 -16 29 -25
right_child=2 12 -4 4 8 22 7 26 -10 10 19 18 13 14 15 -17 -18 -19 -20 -21 -22 -23 -24 28 25 -27 -28 -29 -30 -31
leaf_value=0.00080735625166927392 0.015948275862068966 0.0043960244648318042 0.079166666666666663 0.0055666003976143144 0.012044926413632842 0.0012171068456246694 0.064864864864864868 0.0085106382978723406 0.04042553191489362 0.0068493150684931503 0.02368421052631579 0.056250000000000001 0.0077121771217712179 0.0095744680851063829 0.039130434782608699 0.01891891891891892 0.050000000000000003 0.047619047619047616 0.020731707317073172 0.057777777777777775 0.0086588363835017751 0.056666666666666671 0.0029947066927706479 0.0093750000000000014 0.0060000000000000001 0.044444444444444446 0.037704918032786888 0.082608695652173922 0.0022549206955857063 0.0029826682789197909
leaf_weight=131045 696 2616 24 2515 2582 62361 37 47 47 146 38 32 2710 94 23 37 20 21 82 45 3661 30 13791 1120 50 27 61 23 15699 2481
leaf_count=131045 696 2616 24 2515 2582 62361 37 47 47 146 38 32 2710 94 23 37 20 21 82 45 3661 30 13791 1120 50 27 61 23 15699 2481
internal_value=0 0.00136396 0.0106044 0.0104402 0.00963173 0.00122609 0.0192628 0.0351724 0.0111661 0.0109583 0.0233236 0.0173077 0.00699856 0.00932377 0.0248588 0.0421687 0.00832425 0.00801904 0.0307018 0.0421687 0.0102822 0.0125574 0.0018005 0.00159901 0.00123963 0.0194805 0.025 0.0608696 0.00276166 0.00497084
internal_weight=0 232118 10043 10019 9178 226574 841 145 6663 6616 343 260 5544 2928 177 83 2751 2731 114 83 6273 2612 95529 81738 62438 77 108 46 19300 3601
internal_count=242161 232118 10043 10019 9178 226574 841 145 6663 6616 343 260 5544 2928 177 83 2751 2731 114 83 6273 2612 95529 81738 62438 77 108 46 19300 3601
is_linear=0
shrinkage=0.1


Tree=1
num_leaves=31
num_cat=0
split_feature=10 39 42 38 2 85 28 73 34 24 22 15 32 1 13 24 16 2 83 79 6 53 2 30 78 38 0 36 73 35
split_gain=16.8995 9.74085 3.46757 5.90254 2.93726 2.78784 3.75526 3.49745 3.63842 2.83296 2.64739 3.61568 1.89004 2.48701 2.27514 1.86042 4.13282 3.01626 2.68803 1.92204 4.00013 1.81885 1.81414 2.1422 1.93186 1.79978 1.87761 2.83842 1.74128 2.2257
threshold=0.049999998882412917 158.50000000000003 3.5000000000000004 -0.044999999925494187 38.369998931884773 -2.2222223281860347 27.250000000000004 -18.590278625488278 56.274999618530281 5.1499998569488534 1.1649999618530276 110.50000000000001 424.50000000000006 95.250000000000014 79.250000000000014 7.0499999523162851 28.500000000000004 36.254999160766609 935.37927246093761 18.604166030883793 22.625000000000004 0.00077898474410176288 37.674999237060554 38.049999237060554 -0.6111110746860503 -21.714999198913571 115.75000000000001 -1.0000000180025095e-35 -15.805554389953612 1.0000000180025095e-35
decision_type=2 2 2 2 2 2 2 2 2 2 2 2 2 2 2 2 2 2 2 2 2 2 2 2 2 2 2 2 2 2
left_child=4 2 3 15 22 6 7 8 -3 -7 11 -5 -12 -14 -15 16 -2 -17 -18 25 -21 -16 24 -24 -1 26 -20 -28 -25 -30
right_child=1 5 -4 10 -6 9 -8 -9 -10 -11 12 -13 13 14 21 17 18 -19 19 20 -22 -23 23 28 -26 -27 27 -29 29 -31
leaf_value=0.0011221528680754416 0.0012038314080370582 0.044021060997902449 0.0041049819052947235 0.0025221514167800326 0.0051857869679092219 0.0069704060860619858 0.0095917592914871036 0.05947997312554542 -0.0022617472894489767 0.03450808915750761 0.0043556492005327151 0.041365531418705359 0.029569273082754362 -0.00029766798209836893 0.007363161761168158 0.04562299268727657 0.0024534332678490911 0.006363274410525162 0.0057267854931408804 0.0038219887314577742 0.041828452669498001 0.032963743818239598 0.0017954717574742525 0.0062186166913775834 0.00034462435945763746 0.0028908907734359495 0.038080365475616419 0.010899985764250959 -0.00013354315067937766 0.040686831790063639
leaf_weight=59677 50118 33 10401 15905 1538 2212 194 34 35 38 11043 24 65 151 64 24 11903 106 930 72 45 49 6286 605 68791 1415 44 303 22 34
leaf_count=59677 50118 33 10401 15905 1538 2212 194 34 35 38 11043 24 65 151 64 24 11903 106 930 72 45 49 6286 605 68791 1415 44 303 22 34
internal_value=0 0.00252558 0.00237405 0.00217892 0.000840277 0.0086357 0.017759 0.0332927 0.020199 0.00743549 0.00341272 0.00258068 0.00457817 0.0120472 0.00773302 0.00166038 0.00163642 0.0136112 0.00311008 0.00589257 0.0184399 0.0184643 0.000790923 0.00236491 0.000705808 0.00534723 0.00806902 0.0143465 0.00778015 0.0246503
internal_weight=0 105208 102662 92261 136953 2546 296 102 68 2250 27301 15929 11372 329 264 64960 64830 130 14712 2809 117 113 135415 6947 128468 2692 1277 347 661 56
internal_count=242161 105208 102662 92261 136953 2546 296 102 68 2250 27301 15929 11372 329 264 64960 64830 130 14712 2809 117 113 135415 6947 128468 2692 1277 347 661 56
is_linear=0
shrinkage=0.1


Tree=2
num_leaves=31
num_cat=0
split_feature=22 39 39 31 9 12 39 39 71 10 50 35 6 29 71 9 36 88 20 13 88 87 33 56 31 29 88 32 35 2
split_gain=16.6928 21.8355 6.93299 11.3642 12.9987 6.44969 5.6398 12.1052 6.76641 3.13153 3.45636 2.89118 3.30665 4.43005 6.36031 2.84112 3.38754 3.1806 2.55388 3.36788 3.30117 2.53321 3.46672 2.5241 3.45968 4.58449 2.33024 3.12378 3.11174 2.32146
threshold=0.83499997854232799 64.500000000000014 143.50000000000003 19.44999980926514 25.675000190734867 33.95000076293946 108.50000000000001 39.500000000000007 -0.3750001192092895 0.53499999642372142 0.059422209858894355 1.0000000180025095e-35 23.375000000000004 10.22499990463257 -0.25000001490116114 18.10000038146973 -1.0000000180025095e-35 -37.97917175292968 0.23499999940395358 96.974998474121108 -0.58333343267440785 1235.5415039062502 189.25000000000003 0.88333356380462658 6.6499998569488534 12.125000000000002 -9.2500014305114728 279.50000000000006 1.0000000180025095e-35 37.254999160766609
decision_type=2 2 2 2 2 2 2 2 2 2 2 2 2 2 2 2 2 2 2 2 2 2 2 2 2 2 2 2 2 2
left_child=1 -1 6 15 -5 26 7 23 18 10 -9 12 -11 14 -14 29 17 -17 19 -8 -20 -12 -23 -2 25 -25 27 -3 -29 -4
right_child=2 5 3 4 -6 -7 8 9 -10 11 21 -13 13 -15 -16 16 -18 -19 20 -21 -22 22 -24 24 -26 -27 -28 28 -30 -31
leaf_value=0.00071779054854611451 0.0015926344171729085 0.0075209391753133046 0.0016980748486474431 0.092831841703842996 -0.0027635634467005729 0.012599508058704141 0.0078600268747307297 0.0038576239597072209 0.0056145893310715839 0.0091227734019196823 0.0085948996999650265 0.0052547039127729964 -0.00074560810003037519 0.0066869650563389504 0.047249184308647378 0.039406966706437452 0.022603352750958924 0.0066934387490618979 0.069285920131951576 0.03768048470706812 0.024140453806308949 0.015329881251877729 0.059779249400953242 0.013982349753283283 0.0042233101688732158 0.064503031180989323 0.0036684701278166484 0.049011494517326358 0.010473863521209834 0.010208738302106309
leaf_weight=170648 47980 381 1090 33 25 1681 117 11365 1071 785 680 1376 38 102 101 31 203 720 25 56 46 74 23 82 332 23 2535 40 44 454
leaf_count=170648 47980 381 1090 33 25 1681 117 11365 1071 785 680 1376 38 102 101 31 203 720 25 56 46 74 23 82 332 23 2535 40 44 454
internal_value=0 0.000902621 0.00275999 0.00786753 0.0516269 0.0076407 0.00255688 0.00242151 0.00903845 0.00495142 0.00429878 0.00825052 0.0122683 0.0225141 0.0341283 0.0068515 0.0111419 0.0080438 0.024067 0.0175129 0.0400367 0.0107514 0.0258694 0.00166154 0.00922714 0.0250488 0.00486212 0.0113694 0.0288251 0.00420056
internal_weight=0 175329 66832 2556 58 4681 64276 62961 1315 14544 12142 2402 1026 241 139 2498 954 751 244 173 71 777 97 48417 437 105 3000 465 84 1544
internal_count=242161 175329 66832 2556 58 4681 64276 62961 1315 14544 12142 2402 1026 241 139 2498 954 751 244 173 71 777 97 48417 437 105 3000 465 84 1544
is_linear=0
shrinkage=0.1


Tree=3
num_leaves=31
num_cat=0
split_feature=2 39 39 38 36 16 7 30 30 13 9 77 35 12 10 18 33 35 84 3 35 35 87 35 11 77 10 10 9 11
split_gain=13.4232 35.1295 23.1674 6.81842 5.16918 5.47785 5.1208 8.43559 8.64507 5.19236 4.09694 4.21543 3.90231 7.65823 3.87348 3.63249 2.85461 4.2195 2.731 2.65972 2.52157 2.42854 3.6859 2.42755 2.18834 5.08875 3.03827 3.0048 2.04655 1.97331
threshold=37.789999008178718 60.500000000000007 81.500000000000014 -0.13499999791383741 -1.0000000180025095e-35 99.500000000000014 20.250000000000004 32.850000381469734 22.44999980926514 98.549999237060561 28.60000038146973 -25.041669845581051 1.0000000180025095e-35 38.549999237060554 -1.0000000180025095e-35 98.500000000000014 266.50000000000006 1.0000000180025095e-35 4.4675912857055673 79.250000000000014 1.0000000180025095e-35 1.0000000180025095e-35 -71.250091552734361 1.0000000180025095e-35 7.3250000476837167 -38.97917175292968 0.73500001430511486 0.43500000238418585 20.349999427795414 7.4149999618530282
decision_type=2 2 2 2 2 2 2 2 2 2 2 2 2 2 2 2 2 2 2 2 2 2 2 2 2 2 2 2 2 2
left_child=2 19 14 4 5 10 7 8 -5 12 11 -3 13 -10 -1 -4 20 -18 -17 -2 24 -11 -23 -7 -6 -26 27 -27 -22 -20
right_child=1 3 15 6 16 23 -8 -9 9 21 -12 -13 -14 -15 -16 18 17 -19 29 -21 28 22 -24 -25 25 26 -28 -29 -30 -31
leaf_value=0.00050106526912711271 0.010813218684643923 0.071019301896628292 0.0047930369191701849 0.052379033119216857 -0.0014135488107599118 0.092251891195774094 -0.00060524353246974982 0.057074103504419327 0.0092879715184849432 0.013061549242299337 -0.0023584508116504081 0.027732561510837007 0.0043340261341357723 0.06976737517065236 0.0013726529648529658 0.0065718009068776442 0.014333154819905759 0.066415176647050045 0.016637989536411209 0.0021273481308758968 0.0026013795647542091 0.071402688546536072 0.023707402692457968 0.043571759982123259 0.068471604702062913 0.006031963376070911 0.052558206476701001 0.029570561442908247 0.020748305175412488 0.0088241260961503913
leaf_weight=128006 359 26 4353 51 37 20 301 44 83 52 38 167 686 28 84747 1565 35 28 655 19595 196 26 43 21 24 123 26 97 91 638
leaf_count=128006 359 26 4353 51 37 20 301 44 83 52 38 167 686 28 84747 1565 35 28 655 19595 196 26 43 21 24 123 26 97 91 638
internal_value=0 0.00361741 0.00103719 0.015483 0.0220402 0.0336333 0.0108471 0.01425 0.0123054 0.0100791 0.0276546 0.0335639 0.00714872 0.024544 0.000848249 0.00661165 0.0172406 0.0374807 0.00938158 0.00228362 0.0150939 0.0293809 0.0416795 0.0673182 0.0213935 0.0245189 0.0202309 0.0164103 0.00835528 0.0127824
internal_weight=0 22197 219964 2243 929 272 1314 1013 969 918 231 193 797 111 212753 7211 657 63 2858 19954 594 121 69 41 307 270 246 220 287 1293
internal_count=242161 22197 219964 2243 929 272 1314 1013 969 918 231 193 797 111 212753 7211 657 63 2858 19954 594 121 69 41 307 270 246 220 287 1293
is_linear=0
shrinkage=0.1


Tree=4
num_leaves=31
num_cat=0
split_feature=12 39 14 39 24 38 74 36 3 34 50 14 83 8 85 83 81 36 36 35 13 20 38 84 13 36 77 82 13 79
split_gain=9.1471 7.8004 7.77087 17.9657 4.10482 4.29763 5.01162 5.12363 3.59739 3.5972 13.7802 5.49071 4.44628 3.96566 3.14565 5.22182 6.19971 3.03249 3.03056 2.79177 3.68627 2.54457 7.30132 2.52265 3.71415 2.28528 2.18499 2.17341 6.99903 3.09769
threshold=21.10000038146973 135.50000000000003 12.500000000000002 65.500000000000014 2.7500000000000004 -59.860000610351555 -0.11111114919185637 -1.0000000180025095e-35 103.12500000000001 67.255001068115249 0.013398185372352602 138.50000000000003 875.93511962890636 -3.4750000238418575 -0.81481719017028797 366.86572265625006 -10.034981250762938 -1.0000000180025095e-35 -1.0000000180025095e-35 1.0000000180025095e-35 75.750000000000014 0.12499999627470972 -0.71500000357627858 -10.46296167373657 49.500000000000007 -1.0000000180025095e-35 -0.020837783813476559 -0.16975313425064084 95.424999237060561 -25.333339691162106
decision_type=2 2 2 2 2 2 2 2 2 2 2 2 2 2 2 2 2 2 2 2 2 2 2 2 2 2 2 2 2 2
left_child=-1 2 17 8 -3 6 7 -6 25 10 14 12 26 27 18 16 -16 -2 -5 20 -9 -15 -23 -17 -25 -4 -12 29 -29 -11
right_child=1 4 3 9 5 -7 -8 19 -10 13 11 -13 -14 21 15 23 -18 -19 -20 -21 -22 22 -24 24 -26 -27 -28 28 -30 -31
leaf_value=0.00060421176750532666 0.0020010156654908383 -0.00023704482149605879 0.0017131568968406015 0.059167932197451589 0.064742852670365378 0.0066107004412177418 0.0023110898312281919 -0.0027481625135987999 0.0016788608280918793 0.018884297401830556 0.068073355440834635 0.0069641368419286753 0.021718687153137899 0.0017217380752541968 0.0088704757081965614 0.028594108478864656 0.057972407725950081 0.00064416359792003391 0.0088702661268737007 0.013460696850969492 0.046010172388691838 -0.0021980105283936221 0.05768077921820805 0.042205622161810216 0.0037990823912114505 0.0059524149851394349 0.036923622118774806 0.013868343319821484 0.075285937167380176 0.0035824871943514547
leaf_weight=136195 25469 682 1931 25 29 2126 148 20 22141 250 76 42 46 859 60 48 45 46626 23 183 69 56 32 26 798 3724 32 96 23 281
leaf_count=136195 25469 682 1931 25 29 2126 148 20 22141 250 76 42 46 859 60 48 45 46626 23 183 69 56 32 26 798 3724 32 96 23 281
internal_value=0 0.00184309 0.00169031 0.00302513 0.00666113 0.00848815 0.0173778 0.024786 0.0022538 0.0106333 0.0147194 0.0390137 0.0477545 0.00750931 0.0100739 0.00884598 0.0299142 0.0011235 0.035067 0.0205259 0.0350532 0.00338085 0.0195761 0.0063091 0.00501094 0.00450485 0.0588438 0.0135241 0.025739 0.0107867
internal_weight=0 105966 102709 30614 3257 2575 449 301 27796 2818 1221 196 154 1597 1025 977 105 72095 48 272 89 947 88 872 824 5655 108 650 119 531
internal_count=242161 105966 102709 30614 3257 2575 449 301 27796 2818 1221 196 154 1597 1025 977 105 72095 48 272 89 947 88 872 824 5655 108 650 119 531
is_linear=0
shrinkage=0.1


Tree=5
num_leaves=31
num_cat=0
split_feature=39 10 39 31 2 3 85 17 33 35 9 38 38 36 73 41 28 11 70 85 28 36 7 35 2 20 28 42 32 87
split_gain=7.45059 6.47303 38.2447 4.11318 7.22353 3.90294 3.79141 3.6282 3.46586 3.24737 6.74194 5.04796 3.89119 3.64573 4.27099 4.05317 2.7335 2.40629 2.22573 3.48894 3.22459 9.45565 4.87294 2.24186 2.21095 3.91284 3.52207 3.41934 2.20048 2.14446
threshold=186.50000000000003 0.049999998882412917 60.500000000000007 20.250000000000004 37.73500061035157 78.125000000000014 67.601852416992202 4.8949999809265146 128.50000000000003 1.0000000180025095e-35 24.425000190734867 -2.9650000333786006 -71.25500106811522 -1.0000000180025095e-35 -19.69444370269775 0.61550989747047435 35.524999618530281 7.2349998950958261 -8.4583349227905256 -0.5925920009613036 28.349999427795414 -1.0000000180025095e-35 18.250000000000004 1.0000000180025095e-35 38.305000305175788 0.14500000327825549 31.125000000000004 2.5000000000000004 322.50000000000006 217.49963378906253
decision_type=2 2 2 2 2 2 2 2 2 2 2 2 2 2 2 2 2 2 2 2 2 2 2 2 2 2 2 2 2 2
left_child=1 -1 5 4 8 -3 -5 -2 9 10 11 17 28 15 -15 -13 18 -4 19 -6 21 -20 -23 -22 -7 -26 27 -27 -11 -9
right_child=7 2 3 6 16 24 -8 29 -10 12 -12 13 -14 14 -16 -17 -18 -19 20 -21 23 22 -24 -25 25 26 -28 -29 -30 -31
leaf_value=0.00052470990586328873 0.031151181888782371 0.0055976005025234277 0.027687775088084302 0.014102645973116161 0.034963589244418676 0.00086414535243251826 0.042230731779533737 0.00451006839969846 0.0041527422406437654 0.040626344965446905 0.050966652809661263 0.00071862034476649617 0.0042150698156022005 0.059822660213222315 0.017394988323845294 0.042295345923665802 0.00076918014830428796 0.0025508668888975551 0.042314657568931581 0.005516447564832082 0.022081388586063677 0.039850837108679121 0.004190422277407427 0.0095003967467207646 0.0029573295564566311 0.0544868534976026 -0.0013850162590020583 0.006960930772280942 0.012390285201262737 0.012262130789207043
leaf_weight=136397 59 1843 43 500 45 91274 53 1818 3452 46 49 81 956 49 46 33 153 333 169 380 197 48 190 504 2827 41 38 24 69 444
leaf_count=136397 59 1843 43 500 45 91274 53 1818 3452 46 49 81 956 49 46 33 153 333 169 380 197 48 190 504 2827 41 38 24 69 444
internal_value=0 0.000977129 0.00157368 0.0085028 0.00783241 0.00104011 0.0167985 0.00667023 0.00597468 0.00966344 0.0153357 0.0123512 0.00630565 0.0248107 0.0392787 0.012754 0.0135147 0.00542557 0.0147867 0.00863438 0.0171466 0.0242265 0.0113824 0.013036 0.000950944 0.00365487 0.0227999 0.0369388 0.0236847 0.00603169
internal_weight=0 239840 103443 7396 6843 96047 553 2321 5157 1705 634 585 1071 209 95 114 1686 376 1533 425 1108 407 238 701 94204 2930 103 65 115 2262
internal_count=242161 239840 103443 7396 6843 96047 553 2321 5157 1705 634 585 1071 209 95 114 1686 376 1533 425 1108 407 238 701 94204 2930 103 65 115 2262
is_linear=0
shrinkage=0.1


Tree=6
num_leaves=31
num_cat=0
split_feature=26 39 39 10 57 10 13 30 31 33 33 85 31 30 41 79 35 36 6 33 67 7 85 7 46 36 62 58 33 75
split_gain=5.41061 19.0519 8.05707 6.09078 4.50872 3.68731 3.86561 3.29658 8.04043 3.19994 3.181 2.94142 2.84205 5.07496 2.28149 2.45006 2.75838 2.76241 2.18709 2.13347 1.93863 4.68201 1.93134 1.84462 1.79095 1.73241 2.36338 2.22268 3.04574 2.76449
threshold=1.0000000180025095e-35 53.500000000000007 85.500000000000014 0.74500000476837169 0.00049615246825851511 0.88999998569488536 78.750000000000014 41.95000076293946 19.024999618530277 592.50000000000011 49.500000000000007 35.833337783813484 17.650000572204593 30.94999980926514 0.9712091088294984 -4.8333349227905265 1.0000000180025095e-35 -1.0000000180025095e-35 20.625000000000004 146.50000000000003 -0.27777783572673792 51.250000000000007 15.999994277954103 12.750000000000002 0.22917014360427859 -1.0000000180025095e-35 -8.4999999999999982 1.0000000180025095e-35 124.50000000000001 -18.222222328186032
decision_type=2 2 2 2 2 2 2 2 2 2 2 2 2 2 2 2 2 2 2 2 2 2 2 2 2 2 2 2 2 2
left_child=2 3 18 23 9 7 -7 8 14 12 11 22 -3 20 15 16 17 19 -1 -4 -14 -22 -6 -2 -15 26 -5 -27 -29 -30
right_child=1 4 5 25 10 6 -8 -9 -10 -11 -12 -13 13 24 -16 -17 -18 -19 -20 -21 21 -23 -24 -25 -26 27 -28 28 29 -31
leaf_value=0.00031624786582443908 0.00063640513680861548 0.0043410904978138098 0.063464048423844829 0.015968638594495134 0.050843557757230443 0.0053698492867331358 0.055723661382993062 -0.0037353128252524724 0.048447162657976155 0.042316146794220681 0.0098660367840426484 0.007452810910763219 -0.00089651919501772389 0.017260041014401255 -0.00072779274733563945 0.0050875231636142194 0.0067597137652806146 0.01475348486539039 0.001137080705735895 0.024679883473829642 0.055431891325861217 -0.0034400619566440586 0.017124512931331992 0.002335633562390073 0.042426388115892492 0.005477630177348921 -0.0002210414660050586 0.0043343084650114185 0.026076709371352313 0.0004424258451557385
leaf_weight=123743 52797 6865 23 104 49 31 30 355 45 23 1154 48 289 322 441 1491 318 179 44004 37 22 35 26 7268 31 1296 678 200 204 53
leaf_count=123743 52797 6865 23 104 49 31 30 355 45 23 1154 48 289 322 441 1491 318 179 44004 37 22 35 26 7268 31 1296 678 200 204 53
internal_value=0 0.00165906 0.00062268 0.00104466 0.00599814 0.00580342 0.030134 0.00528969 0.00655405 0.00507286 0.0114955 0.026783 0.00495962 0.0110343 0.00579664 0.00720156 0.0128605 0.0209778 0.000531572 0.0395471 0.00242776 0.0192824 0.0391543 0.000842016 0.0194701 0.00584609 0.00193206 0.00759211 0.0135885 0.0207903
internal_weight=0 71464 170697 62600 8864 2950 61 2889 2534 7587 1277 123 7564 699 2489 2048 557 239 167747 60 346 57 75 60065 353 2535 782 1753 457 257
internal_count=242161 71464 170697 62600 8864 2950 61 2889 2534 7587 1277 123 7564 699 2489 2048 557 239 167747 60 346 57 75 60065 353 2535 782 1753 457 257
is_linear=0
shrinkage=0.1


Tree=7
num_leaves=31
num_cat=0
split_feature=22 39 14 14 2 38 34 33 6 3 88 34 28 71 38 35 53 41 38 42 83 30 30 82 36 33 30 82 30 7
split_gain=9.12674 6.61718 6.46082 4.10565 3.75104 7.61333 6.30069 5.73203 3.60796 3.76763 3.38772 2.41182 6.05086 2.14624 2.13139 7.56684 2.64748 2.03368 4.0502 3.13079 5.73547 2.07093 2.01273 1.87203 2.24684 1.5491 1.47111 2.37407 2.9591 1.65387
threshold=0.79500001668930065 76.500000000000014 22.500000000000004 134.50000000000003 38.340000152587898 -139.62999725341794 80.284999847412124 384.50000000000006 22.375000000000004 119.12500000000001 -4.4166707992553702 61.989999771118171 26.925000190734867 -0.16666671633720395 -3.0149999856948848 1.0000000180025095e-35 0.00085593818221241247 0.41214168071746832 -10.605000019073485 8.5000000000000018 582.37487792968761 25.550000190734867 20.44999980926514 -0.30041153728961939 -1.0000000180025095e-35 226.50000000000003 63.049999237060554 -0.34773661196231836 27.22500038146973 20.750000000000004
decision_type=2 2 2 2 2 2 2 2 2 2 2 2 2 2 2 2 2 2 2 2 2 2 2 2 2 2 2 2 2 2
left_child=1 -1 -2 14 8 10 7 11 -4 17 -6 -7 13 -13 -3 16 -16 18 -10 21 -21 -19 -18 -17 25 -25 27 -23 -29 -28
right_child=2 3 4 -5 5 6 -8 -9 9 -11 -12 12 -14 -15 15 23 22 19 -20 20 -22 26 -24 24 -26 -27 29 28 -30 -31
leaf_value=0.00035708875541789353 0.0011643144406723225 0.0028492219534801376 0.0021735044049650408 0.036529636601917451 0.062947987631196162 0.00060938611510555189 0.060665256716310983 0.044471914991219011 0.0094602047366965005 0.0025811368025049734 0.022417134537907512 0.066930354861542585 0.0040004452163893206 0.026459175911977103 0.013238709516039022 -0.0028638176467052127 0.061649730475619439 0.0027760522622367369 0.056058859929012564 0.0005405463806043069 0.064070635764963108 0.0059896584776330192 0.028855973992715861 -0.00054005006611158575 0.024338602604727977 0.011906086321855558 -0.0019736991088009546 9.8612737067106402e-05 0.017467960584608297 0.028338320814073087
leaf_weight=169408 47933 2640 15031 40 32 674 21 36 66 2576 58 20 214 38 95 274 24 797 26 30 27 661 85 237 68 173 180 119 558 20
leaf_count=169408 47933 2640 15031 40 32 674 21 36 66 2576 58 20 214 38 95 274 24 797 26 30 27 661 85 237 68 173 180 119 558 20
internal_value=0 0.000447684 0.00180706 0.00466866 0.00326139 0.00896648 0.00646644 0.0053074 0.00295102 0.00526069 0.0368281 0.003817 0.0117653 0.0404148 0.00431426 0.00835997 0.0254413 0.00803948 0.0226294 0.00747833 0.0306337 0.00691308 0.0360766 0.0037262 0.00750374 0.00471161 0.00905691 0.0102526 0.0144149 0.0010575
internal_weight=0 173044 69117 3636 21184 1093 1003 982 20091 5060 90 946 272 58 3596 956 204 2484 92 2392 57 2335 109 752 478 410 1538 1338 677 200
internal_count=242161 173044 69117 3636 21184 1093 1003 982 20091 5060 90 946 272 58 3596 956 204 2484 92 2392 57 2335 109 752 478 410 1538 1338 677 200
is_linear=0
shrinkage=0.1


Tree=8
num_leaves=31
num_cat=0
split_feature=2 39 17 10 14 71 36 66 22 84 31 44 38 44 35 36 38 31 75 73 57 18 68 80 36 35 17 87 21 44
split_gain=8.68581 8.72877 3.0533 3.2353 4.05129 2.55765 2.63373 2.73857 2.35211 2.27209 3.51094 3.46602 3.41806 4.38049 2.73799 2.84213 2.22871 2.07627 3.00787 2.14535 2.65609 1.89847 3.27939 2.2485 1.94718 3.20959 1.66624 1.69511 2.28359 1.64653
threshold=37.805000305175788 85.500000000000014 1.0349999666213991 0.50499999523162853 13.500000000000002 -0.083333432674407945 -1.0000000180025095e-35 -41.319444656372063 0.80500000715255748 51.689819335937507 19.150000572204593 102.75000000000001 -0.4549999982118606 101.75000000000001 1.0000000180025095e-35 -1.0000000180025095e-35 -9.3949999809265119 12.84999990463257 -28.999998092651364 -22.215277671813961 0.00023025072005111727 81.500000000000014 66.125000000000014 -8.2083349227905256 -1.0000000180025095e-35 1.0000000180025095e-35 5.3199999332427987 239.99963378906253 73.250000000000014 95.250000000000014
decision_type=2 2 2 2 2 2 2 2 2 2 2 2 2 2 2 2 2 2 2 2 2 2 2 2 2 2 2 2 2 2
left_child=1 8 -2 -4 -5 -6 7 -7 -1 10 29 14 -12 -14 15 -11 -10 18 -8 -20 -21 22 26 -24 25 -25 27 -18 -29 -3
right_child=2 9 3 4 5 6 17 -9 16 11 12 -13 13 -15 -16 -17 21 -19 19 20 -22 -23 23 24 -26 -27 -28 28 -30 -31
leaf_value=0.0002720647699985335 0.00053085737664713354 0.0037903417854096137 0.0029251867678338258 0.0036072201748728891 0.0079345007923271784 -0.00062896185083670571 0.068766847852131593 0.033883591374802978 0.00041417757078537231 0.055764281404791054 0.0086765108280033882 0.00053674703337756771 0.053374288403769822 -0.0037103459425270563 0.0092105999020448172 0.019799055755769804 0.0037313143833320179 0.01639895470420781 0.0047897687009363261 0.021286474284715952 0.067055806446643107 0.0012730607035020519 0.041984921678900722 0.0058718389279588511 0.0071590705491196855 0.057327088493515144 0.0011361660540065996 0.042151974058588559 0.0093370408923981497 -0.00023907826542338102
leaf_weight=161825 4624 4624 13080 1090 396 89 23 31 27907 27 298 251 41 20 249 118 1844 95 27 32 21 20782 25 27 248 22 2751 23 272 1299
leaf_count=161825 4624 4624 13080 1090 396 89 23 31 27907 27 298 251 41 20 249 118 1844 95 27 32 21 20782 25 27 248 22 2751 23 272 1299
internal_value=0 0.000574832 0.00277541 0.00347272 0.00744265 0.0132979 0.0199768 0.00828678 0.000462634 0.00406898 0.00348865 0.00972107 0.0130912 0.034658 0.015572 0.026496 0.00103477 0.0270616 0.0368961 0.0277333 0.0394215 0.00170104 0.00340754 0.0131826 0.0107582 0.0289742 0.00276387 0.00485728 0.0118955 0.00290663
internal_weight=0 222653 19508 14884 1804 714 318 120 215726 6927 6282 645 359 61 394 145 53901 198 103 80 53 25994 5212 322 297 49 4890 2139 295 5923
internal_count=242161 222653 19508 14884 1804 714 318 120 215726 6927 6282 645 359 61 394 145 53901 198 103 80 53 25994 5212 322 297 49 4890 2139 295 5923
is_linear=0
shrinkage=0.1


Tree=9
num_leaves=31
num_cat=0
split_feature=39 12 26 67 30 47 2 20 13 30 39 19 28 35 22 13 14 44 88 8 41 88 10 22 30 36 7 8 7 8
split_gain=20.3082 6.10578 4.34984 4.09396 3.58767 2.79551 4.64337 2.48977 7.64867 4.93382 2.38905 2.30411 1.88374 3.76201 6.14239 3.54137 3.19748 2.71475 2.17114 4.26661 2.12368 4.71997 2.9051 2.91758 1.86514 1.76795 3.24466 6.29241 3.09658 2.03192
threshold=76.500000000000014 33.750000000000007 12.34999990463257 -2.6666666269302364 86.649997711181655 2.5000000000000004 38.114999771118171 0.2650000005960465 85.599998474121108 26.550000190734867 328.50000000000006 0.88499999046325695 32.524999618530281 1.0000000180025095e-35 1.294999957084656 99.149997711181655 45.500000000000007 102.75000000000001 -2.0000071525573726 -1.0000000180025095e-35 0.41718769073486334 -48.000091552734368 0.42499999701976782 1.4149999618530276 35.95000076293946 -1.0000000180025095e-35 23.750000000000004 -2.1499999761581416 44.750000000000007 3.8249999284744267
decision_type=2 2 2 2 2 2 2 2 2 2 2 2 2 2 2 2 2 2 2 2 2 2 2 2 2 2 2 2 2 2
left_child=5 2 10 -4 12 6 24 -8 -9 -10 11 -2 15 14 -14 17 -17 20 19 -16 -3 22 -22 -24 -1 26 27 -23 -28 -29
right_child=1 4 3 -5 -6 -7 7 8 9 -11 -12 -13 13 -15 18 16 -18 -19 -20 -21 21 25 23 -25 -26 -27 28 29 -30 -31
leaf_value=0.00025302984700092805 -0.00087506909095731917 -0.0032040724669819449 0.060466371916911822 0.012343845814466478 0.036895473324125863 0.0033190782450657798 0.0025647409406328436 -0.0019480015202942823 0.075101095323379219 0.01967240272843767 0.026782326870842983 0.0038721731354728756 0.034496520598879969 0.0016966244533297517 0.004350718664114967 0.01728879693172761 0.061227772588079626 0.0014192801103409796 -0.00096341230963145836 0.051336565379191325 0.014254895927241216 0.056766222736665185 0.075265979072587058 0.026602145284414291 0.0011277292894430193 0.0065436956103280645 0.033890303300919931 0.014458291410732356 -0.0045855840668082241 0.0057602190528996296
leaf_weight=193337 1967 134 22 90 41 3443 7706 108 26 42 38 2129 99 1240 68 67 22 540 181 27 52 28 22 28 27895 1495 107 413 26 768
leaf_count=193337 1967 134 22 90 41 3443 7706 108 26 42 38 2129 99 1240 68 67 22 540 181 27 52 28 22 28 27895 1495 107 413 26 768
internal_value=0 0.00518322 0.00235081 0.0217965 0.00742779 0.000490796 0.000448294 0.00283334 0.0145937 0.0408657 0.00182398 0.00159243 0.00720056 0.00435079 0.0131272 0.00844377 0.0281501 0.00795834 0.00546217 0.0177046 0.00910741 0.00966873 0.0308036 0.0480142 0.00036332 0.00890886 0.0115437 0.0099128 0.0263687 0.00880197
internal_weight=0 9604 4246 112 5358 232557 229114 7882 176 68 4134 4096 5317 1615 375 3702 89 3613 276 95 3073 2939 102 50 221232 2837 1342 1209 133 1181
internal_count=242161 9604 4246 112 5358 232557 229114 7882 176 68 4134 4096 5317 1615 375 3702 89 3613 276 95 3073 2939 102 50 221232 2837 1342 1209 133 1181
is_linear=0
shrinkage=0.1


Tree=10
num_leaves=31
num_cat=0
split_feature=10 2 16 39 68 15 39 27 0 77 78 14 70 41 39 13 77 13 27 30 34 24 19 82 3 36 27 18 75 87
split_gain=4.00879 6.08671 2.53191 4.16631 3.01515 2.23837 9.85406 3.62161 5.0147 3.38768 2.54206 1.94837 2.15401 3.9547 3.04075 9.44376 5.4324 2.41334 1.82855 3.58266 1.81025 2.04057 4.6946 1.77191 1.66852 3.4 3.479 1.95413 4.09556 2.5956
threshold=0.76999998092651378 37.954999923706062 45.500000000000007 78.500000000000014 27.625000000000004 20.500000000000004 55.500000000000007 4.4049999713897714 84.250000000000014 -25.333339691162106 -1.1805555820465086 1.0000000180025095e-35 -7.4583349227905265 0.34191890060901647 80.500000000000014 95.149997711181655 -16.229167938232418 97.02500152587892 0.19500000029802325 149.25000000000003 47.764999389648445 5.7500000000000009 3.7050000429153447 -0.20370372384786603 118.58499908447267 -1.0000000180025095e-35 0.80500000715255748 92.500000000000014 -23.749998092651364 -450.87530517578119
decision_type=2 2 2 2 2 2 2 2 2 2 2 2 2 2 2 2 2 2 2 2 2 2 2 2 2 2 2 2 2 2
left_child=1 5 3 20 -5 6 -1 18 -9 -10 -7 -3 13 -13 -14 16 -16 -17 19 -8 21 -2 -23 -18 25 -4 27 28 29 -27
right_child=2 11 24 4 -6 10 7 8 9 -11 -12 12 14 -15 15 17 23 -19 -20 -21 -22 22 -24 -25 -26 26 -28 -29 -30 -31
leaf_value=3.4700557942295131e-05 0.0039192754659970732 0.0017020811454183282 0.00069017302267343169 0.009480035251325316 0.041213884240970382 0.001905060383347906 0.0040230405597756853 0.00041523493924423268 0.062809975184500225 0.020898440147370655 0.00050937105133316244 0.033046337913367009 0.0051334226850623709 0.0021441236446164474 0.049316500596426151 0.029488440809978381 0.022823801478653247 0.069801534531694465 -0.0031361050327881803 0.035674682075882126 0.00050138385617487513 0.054863870516419416 -0.0015841593774145143 -0.0024736385326832536 0.0027278759859197944 0.021123087119370228 -0.0015089627944781811 0.011574160841220161 0.0043108264632199123 0.050853981731290167
leaf_weight=148240 1058 8843 415 111 41 17988 5392 76 30 54 47537 42 1483 2962 27 27 33 33 359 36 5202 26 34 172 1126 63 158 469 69 55
leaf_count=148240 1058 8843 415 111 41 17988 5392 76 30 54 47537 42 1483 2962 27 27 33 33 359 36 5202 26 34 172 1126 63 158 469 69 55
internal_value=0 0.00053007 0.00270109 0.00167946 0.0180398 0.000402897 0.000194822 0.00418615 0.0190273 0.0358668 0.000892517 0.00258127 0.00420812 0.00257618 0.00697001 0.0162976 0.007152 0.0516606 0.00377582 0.00423296 0.00128598 0.00493667 0.0228767 0.00159863 0.00550872 0.00805652 0.0118121 0.0150205 0.023664 0.0349807
internal_weight=0 233334 8827 6472 152 219712 154187 5947 160 84 65525 13622 4779 3004 1775 292 232 60 5787 5428 6320 1118 60 205 2355 1229 814 656 187 118
internal_count=242161 233334 8827 6472 152 219712 154187 5947 160 84 65525 13622 4779 3004 1775 292 232 60 5787 5428 6320 1118 60 205 2355 1229 814 656 187 118
is_linear=0
shrinkage=0.1


Tree=11
num_leaves=31
num_cat=0
split_feature=11 39 68 38 26 10 39 16 68 74 57 8 39 10 18 36 31 77 2 10 12 33 35 36 13 8 66 53 56 13
split_gain=3.00558 3.53979 2.30716 2.93303 2.07759 2.71682 2.42353 4.62019 5.4372 2.9713 3.22923 1.82784 1.78817 3.96291 3.4796 2.51708 5.33274 2.09795 1.83204 1.75415 2.54512 2.01979 1.97529 4.52763 2.96608 2.445 2.62227 1.69264 2.20542 1.67519
threshold=7.1250000000000009 184.50000000000003 31.125000000000004 -68.365001678466783 0.32500000298023229 0.72500002384185802 66.500000000000014 81.500000000000014 57.125000000000007 -1.0833333134651182 0.0011579217389225962 -23.499999999999996 55.500000000000007 0.63999998569488536 93.500000000000014 -1.0000000180025095e-35 26.150000572204593 -15.479171752929686 38.024999618530281 0.92500001192092907 37.750000000000007 204.50000000000003 1.0000000180025095e-35 -1.0000000180025095e-35 91.250000000000014 -25.749999999999996 -36.333330154418938 0.0012453832896426322 0.40000005066394811 89.549999237060561
decision_type=2 2 2 2 2 2 2 2 2 2 2 2 2 2 2 2 2 2 2 2 2 2 2 2 2 2 2 2 2 2
left_child=12 4 19 -4 -2 6 -6 -8 9 10 -9 -5 18 14 -14 17 -17 -16 -1 20 -3 -22 24 -24 -23 26 -26 28 -7 -13
right_child=1 2 3 11 5 27 7 8 -10 -11 -12 29 13 -15 15 16 -18 -19 -20 -21 21 22 23 -25 25 -27 -28 -29 -30 -31
leaf_value=0.00010913099047343182 0.00059552622127650545 -0.00056176604608995748 0.044016309904641122 0.0036329253878746486 0.00096224267891430171 0.0013893494585872871 0.0012101180222718524 0.012231368666146211 0.046420535464820112 0.0050110926297744522 0.042623289371299194 0.0064823044111599797 0.00080297028997796088 0.032210738165304065 0.050652857157199284 0.003612552519483172 0.053142843622228375 0.015960831889727464 0.0025929374590917898 0.027410136211302973 -0.00023020091893631296 0.052212075237184769 0.0024519908623207337 0.039996740615202322 -0.0038062514180873899 0.03099488695723969 0.034673253867937175 0.0078918847416719184 0.024488205696607746 0.035205480257670084
leaf_weight=126502 78089 792 29 148 23574 1067 2133 187 38 797 43 37 3218 44 23 396 23 72 3041 31 229 24 298 36 77 57 23 1045 43 45
leaf_count=126502 78089 792 29 148 23574 1067 2133 187 38 797 43 37 3218 44 23 396 23 72 3041 31 229 24 298 36 77 57 23 1045 43 45
internal_value=0 0.000938191 0.005304 0.0140473 0.000863698 0.00158763 0.00131268 0.00389589 0.00927501 0.00790059 0.0179133 0.0102685 0.000229965 0.00237507 0.00202331 0.00966352 0.0063314 0.02436 0.000167438 0.00385888 0.00338356 0.00758342 0.0110578 0.00649873 0.0194707 0.0144657 0.00504403 0.00500346 0.00228417 0.022245
internal_weight=0 108842 1826 259 107016 28927 26772 3198 1065 1027 230 230 133319 3776 3732 514 419 95 129543 1567 1536 744 515 334 181 157 100 2155 1110 82
internal_count=242161 108842 1826 259 107016 28927 26772 3198 1065 1027 230 230 133319 3776 3732 514 419 95 129543 1567 1536 744 515 334 181 157 100 2155 1110 82
is_linear=0
shrinkage=0.1


Tree=12
num_leaves=31
num_cat=0
split_feature=14 10 39 19 88 71 26 31 28 10 0 18 34 71 38 26 41 68 16 28 35 28 7 22 36 9 24 39 18 29
split_gain=2.97312 2.07094 2.97935 4.94155 4.10093 4.02709 6.01178 5.18095 5.03307 2.10502 2.08704 2.18806 9.44022 4.26079 10.8534 2.37456 8.4398 1.72309 1.93358 4.21838 1.71953 1.56548 1.56166 1.71533 1.51288 4.13499 1.37964 6.55971 4.95283 5.17485
threshold=33.500000000000007 0.34000000357627874 89.500000000000014 1.3550000190734866 -0.66667127609252919 -0.083333432674407945 12.050000190734865 11.00500011444092 26.550000190734867 0.48499999940395361 98.250000000000014 91.500000000000014 40.020000457763679 -0.083333432674407945 -0.085000000894069658 2.3500000238418584 0.58171507716178905 99.125000000000014 59.500000000000007 43.45000076293946 1.0000000180025095e-35 28.72500038146973 24.250000000000004 2.804999947547913 -1.0000000180025095e-35 23.849999427795414 0.65000000596046459 74.500000000000014 97.500000000000014 12.250000000000002
decision_type=2 2 2 2 2 2 2 2 2 2 2 2 2 2 2 2 2 2 2 2 2 2 2 2 2 2 2 2 2 2
left_child=17 2 -2 5 -5 6 -4 -8 -7 -3 -11 12 -12 20 -15 16 -13 26 -19 -20 22 24 23 -14 -18 -26 -1 -28 -29 -30
right_child=1 9 3 4 -6 8 7 -9 -10 10 11 15 13 14 -16 -17 21 18 19 -21 -22 -23 -24 -25 25 -27 27 28 29 -31
leaf_value=3.268738129027236e-05 0.00037403768824232329 0.0010506783699865787 -0.0045220466325931914 0.055216959561850576 0.0074670566086258204 0.0063903404000614367 0.05291316948226981 -0.0030085525413354238 0.052834191716143064 0.0022366614123165806 0.064403068430481422 0.050757807670388282 0.010475094732828439 0.01213561836630106 0.087585043907165538 -0.0020170262201704208 0.0041763703419286534 0.001220394739530976 0.0052882719435337119 0.046937943829223519 -0.00084216164718015811 0.0021312806441537327 0.00022862407765010507 0.048283069226003832 0.0086179845117079403 0.04423533945866838 0.00035922295898006742 0.0011249481360521775 0.0062154784138787351 0.043852508355032759
leaf_weight=95137 17280 8094 395 37 35 70 37 30 35 5429 31 41 28 207 21 496 243 3234 891 25 356 840 41 21 159 41 102458 3527 2885 37
leaf_count=95137 17280 8094 395 37 35 70 37 30 35 5429 31 41 28 207 21 496 243 3234 891 25 356 840 41 21 159 41 102458 3527 2885 37
internal_value=0 0.00136094 0.000621998 0.00732741 0.0320052 0.00419373 0.000176022 0.0278736 0.0218716 0.00218603 0.00334136 0.00571657 0.0104463 0.00796464 0.0190849 0.00388443 0.00609525 0.000351927 0.00236917 0.006425 0.00227985 0.004668 0.0146291 0.0266785 0.00947803 0.0159195 0.000310898 0.000553933 0.00364737 0.00669206
internal_weight=0 33967 17919 639 72 567 462 67 105 16048 7954 2525 705 674 228 1820 1324 208194 4150 916 446 1283 90 49 443 200 204044 108907 6449 2922
internal_count=242161 33967 17919 639 72 567 462 67 105 16048 7954 2525 705 674 228 1820 1324 208194 4150 916 446 1283 90 49 443 200 204044 108907 6449 2922
is_linear=0
shrinkage=0.1


Tree=13
num_leaves=31
num_cat=0
split_feature=2 39 10 39 43 38 50 81 35 81 13 28 16 68 28 25 42 88 76 16 35 8 13 3 36 34 33 34 70 36
split_gain=4.33966 4.61276 2.35598 6.28082 3.42814 3.0128 3.91336 3.64252 3.24598 2.19548 1.94427 2.23032 2.1234 5.52221 2.13692 1.81315 2.56613 2.58585 2.33906 1.75175 1.73915 2.17293 4.51788 1.56931 2.35249 1.96084 1.5643 4.02826 5.06112 2.13637
threshold=38.23500061035157 34.500000000000007 0.75499999523162853 76.500000000000014 136.75000000000003 -161.29499816894528 0.11778303980827333 -15.588993549346922 1.0000000180025095e-35 -14.423355102539061 85.424999237060561 21.44999980926514 37.500000000000007 9.1250000000000018 30.425000190734867 5.1099998950958261 4.5000000000000009 -46.000001907348626 -440.20843505859369 43.500000000000007 1.0000000180025095e-35 -3.4750000238418575 98.825000762939467 115.12500000000001 -1.0000000180025095e-35 70.774997711181655 126.50000000000001 55.940000534057624 -7.604167938232421 -1.0000000180025095e-35
decision_type=2 2 2 2 2 2 2 2 2 2 2 2 2 2 2 2 2 2 2 2 2 2 2 2 2 2 2 2 2 2
left_child=2 -2 3 -1 15 7 26 8 -6 -9 -3 -12 14 -14 -13 16 17 18 -5 -4 21 22 -18 24 -21 -26 27 28 -7 -29
right_child=1 10 19 4 5 6 -8 9 -10 -11 11 12 13 -15 -16 -17 20 -19 -20 23 -22 -23 -24 -25 25 -27 -28 29 -30 -31
leaf_value=0.00020863345803827165 0.0011784485876141641 0.0041626375224139587 0.0011296145590241253 0.0021118193282745781 0.038899702367832863 0.0099362010089680559 0.036972377149181238 0.027297699961456513 0.0082199286795773749 0.0023829254355015503 -0.0033266105513387132 0.012532521412097689 0.01154260728444005 0.042147588586384385 -0.0020123369529122309 0.015161608879485828 0.0040587353638987592 -0.00076740787821241035 0.035320922310807204 0.00050603510780619979 0.0026238212793670748 0.043847930289450145 0.043188461565545629 0.0019222661886044224 0.014587366749699357 0.0038872165708536549 0.0027564259984413728 0.01518431150459296 0.053145702492173132 0.0016458867285437081
leaf_weight=218614 4539 1173 6165 48 83 80 36 42 59 224 106 290 290 74 155 89 188 3481 38 357 453 21 35 1234 441 280 2863 151 41 511
leaf_count=218614 4539 1173 6165 48 83 80 36 42 59 224 106 290 290 74 155 89 188 3481 38 357 453 21 35 1234 441 280 2863 151 41 511
internal_value=0 0.00296785 0.000373103 0.000311993 0.00298827 0.00506707 0.00416361 0.0132204 0.0261525 0.00631684 0.00685773 0.0103128 0.0120999 0.0177645 0.00746633 0.00103506 0.000740209 -0.000344206 0.0167856 0.00200994 0.00628987 0.0130961 0.0102002 0.00435734 0.00714481 0.010432 0.00383966 0.00780045 0.0245774 0.00473396
internal_weight=0 6627 235534 227057 8443 4090 3682 408 142 266 2088 915 809 364 445 4353 4264 3567 86 8477 697 244 223 2312 1078 721 3646 783 121 662
internal_count=242161 6627 235534 227057 8443 4090 3682 408 142 266 2088 915 809 364 445 4353 4264 3567 86 8477 697 244 223 2312 1078 721 3646 783 121 662
is_linear=0
shrinkage=0.1


Tree=14
num_leaves=31
num_cat=0
split_feature=2 79 19 41 64 35 36 24 66 25 15 8 35 71 28 7 33 3 31 10 70 88 36 22 30 9 5 13 34 51
split_gain=3.08267 1.81346 1.63805 2.07964 2.31496 2.61713 3.56681 1.44565 2.356 1.18487 1.85045 3.2907 6.26683 2.95382 1.34354 1.30639 2.56644 2.67362 1.34818 1.16499 1.13897 1.34334 1.11076 0.975839 1.22904 0.965666 1.58102 1.91965 3.12504 1.61453
threshold=37.454999923706062 -22.229167938232418 1.5950000286102297 0.3857505470514298 51.625000000000007 1.0000000180025095e-35 -1.0000000180025095e-35 11.550000190734865 -54.930555343627923 4.5350000858306894 110.50000000000001 -23.499999999999996 1.0000000180025095e-35 -0.50000002980232228 23.22500038146973 18.750000000000004 247.50000000000003 123.12500000000001 15.150000095367433 0.3900000005960465 -8.5625009536743146 -2.5833338499069209 -1.0000000180025095e-35 4.8650000095367441 46.649999618530281 13.250000000000002 44.125000000000007 94.049999237060561 47.98500061035157 -0.0081800068728625757
decision_type=2 2 2 2 2 2 2 2 2 2 2 2 2 2 2 2 2 2 2 2 2 2 2 2 2 2 2 2 2 2
left_child=1 7 3 4 -2 -6 -7 9 -9 -1 14 -12 -13 -14 23 18 20 -18 -16 -3 21 -17 -5 25 -25 26 27 28 29 -11
right_child=2 19 -4 22 5 6 -8 8 -10 10 11 12 13 -15 15 16 17 -19 -20 -21 -22 -23 -24 24 -26 -27 -28 -29 -30 -31
leaf_value=0.00041088800340936794 0.0040419008797414153 -0.00024766718663419548 0.0028186910448626361 0.0014997178500604823 0.0050279978392645721 0.013088315470144152 0.069746350608766092 0.030661586672067642 0.00018084722323692405 0.020981199693177705 0.0024669849807225645 -0.0017854015237059107 0.076343553691454569 0.025662800953116106 -0.00011814673397364491 0.0054833924189843092 0.0009308938160538674 0.044884377471621967 0.0028166012620018614 0.0004290056661862386 0.00019999064310215848 0.025883433258009927 0.00038669664611442315 0.025172311954454265 -0.0037756347351453525 1.147610696431176e-05 0.003318042827940142 -0.0021158630237111758 0.0082520452647491596 0.057693329731002455
leaf_weight=70605 638 77134 5256 14945 50 25 20 42 64 23 218 44 23 23 7758 253 25 31 1961 37966 497 37 22413 44 22 659 1216 58 86 25
leaf_count=70605 638 77134 5256 14945 50 25 20 42 64 23 218 44 23 23 7758 253 25 31 1961 37966 497 37 22413 44 22 659 1216 58 86 25
internal_value=0 0.000233103 0.00116381 0.000935459 0.00621046 0.0207741 0.0382697 0.000587238 0.0122581 0.000572441 0.00144966 0.00910841 0.0251954 0.0510032 0.00126385 0.000801538 0.00457778 0.0252623 0.000473997 -2.44651e-05 0.00310595 0.00808616 0.000831959 0.00355306 0.015523 0.00317086 0.00464957 0.0130826 0.019661 0.0401021
internal_weight=0 198814 43347 38091 733 95 45 83714 106 83608 13003 308 90 46 12695 10562 843 56 9719 115100 787 290 37358 2133 66 2067 1408 192 134 48
internal_count=242161 198814 43347 38091 733 95 45 83714 106 83608 13003 308 90 46 12695 10562 843 56 9719 115100 787 290 37358 2133 66 2067 1408 192 134 48
is_linear=0
shrinkage=0.1


Tree=15
num_leaves=31
num_cat=0
split_feature=22 38 39 10 28 76 33 35 31 13 44 81 35 47 39 2 35 38 33 26 85 38 36 13 39 81 47 33 13 34
split_gain=3.41752 4.05776 2.87908 1.97375 2.24295 3.53774 6.4931 6.88471 1.95133 2.30361 2.25195 1.94309 1.85624 1.37767 3.46999 3.46403 5.45251 1.84385 3.13159 1.99643 3.19573 1.78956 4.13126 3.88557 1.63565 1.35172 1.23198 1.78697 1.73277 2.84454
threshold=0.66500002145767223 -0.095000002533197389 311.50000000000006 0.8100000023841859 26.349999427795414 -54.479248046874993 305.50000000000006 1.0000000180025095e-35 12.150000095367433 96.224998474121108 82.750000000000014 -18.53240871429443 1.0000000180025095e-35 1.5000000000000002 64.500000000000014 37.454999923706062 1.0000000180025095e-35 -0.17500000447034833 199.50000000000003 1.9499999880790713 15.666665077209474 -3.0149999856948848 -1.0000000180025095e-35 97.325000762939467 205.50000000000003 -14.281894207000731 1.5000000000000002 182.50000000000003 88.599998474121108 70.014999389648452
decision_type=2 2 2 2 2 2 2 2 2 2 2 2 2 2 2 2 2 2 2 2 2 2 2 2 2 2 2 2 2 2
left_child=13 2 -2 4 5 6 12 8 -8 10 -10 -7 -3 14 -1 17 21 19 -19 -16 -21 22 25 -23 -20 -17 -6 -28 -29 -30
right_child=1 3 -4 -5 26 11 7 -9 9 -11 -12 -13 -14 -15 15 16 -18 18 24 20 -22 23 -24 -25 -26 -27 27 28 29 -31
leaf_value=-3.1108175230708065e-06 0.00040095186660940823 -0.00023351218090088014 0.024904024406957131 0.0062681403343320119 0.0012570462477395714 0.03039308968000114 -0.0017446073445390505 0.049123909276235722 0.046605372036228311 7.1136757913159158e-05 0.0093875136997165348 0.0094092626500417269 0.0045677362971750122 0.0017616954463191713 -0.000186116755783399 0.048828184559489743 0.0022875798806067434 0.00013471705529570206 0.0183820820948178 0.039970293862279509 0.0035730594617067557 0.040316466237793031 0.0024593085218388758 -0.0014184741551677388 -0.0041159076518134064 0.015881658028811217 0.0027023164767546585 0.0051862142387438907 0.048160880968412936 0.0013508816249668599
leaf_weight=161867 48674 1605 48 1054 17673 72 83 58 37 41 29 114 1616 4943 2438 33 434 319 216 32 98 87 111 30 38 20 281 55 34 21
leaf_count=161867 48674 1605 48 1054 17673 72 83 58 37 41 29 114 1616 4943 2438 33 434 319 216 32 98 87 111 30 38 20 281 55 34 21
internal_value=0 0.000940146 0.000425092 0.00204208 0.001837 0.00409619 0.00337579 0.0189675 0.00976185 0.0186874 0.0302521 0.017532 0.00217531 0.000116583 6.75148e-05 0.00303223 0.00931431 0.00160221 0.00673141 0.000457732 0.0125324 0.020167 0.0134265 0.0296152 0.0150162 0.0363955 0.00137988 0.00693205 0.0177371 0.030288
internal_weight=0 71495 48722 22773 21719 3655 3469 248 190 107 66 186 3221 170666 165723 3856 715 3141 573 2568 130 281 164 117 254 53 18064 391 110 55
internal_count=242161 71495 48722 22773 21719 3655 3469 248 190 107 66 186 3221 170666 165723 3856 715 3141 573 2568 130 281 164 117 254 53 18064 391 110 55
is_linear=0
shrinkage=0.1


Tree=16
num_leaves=31
num_cat=0
split_feature=2 3 26 30 27 81 39 74 41 68 34 31 30 39 35 62 38 39 27 44 19 62 10 38 34 39 9 30 38 13
split_gain=2.01747 2.18152 1.84015 1.98187 3.79327 2.94874 2.03356 3.9456 5.17827 1.66512 1.62863 1.55738 2.66175 8.5447 6.76962 4.51838 11.0888 4.35743 3.28377 2.54022 1.98554 1.83467 2.28709 1.53476 1.34726 1.31836 11.2509 1.12024 1.06487 1.62932
threshold=38.514999389648445 89.125000000000014 0.52500000596046459 20.44999980926514 0.30500000715255743 -16.06533050537109 209.50000000000003 -0.12499999999999999 0.6429719626903535 20.625000000000004 83.99499893188478 18.94999980926514 46.95000076293946 128.50000000000003 1.0000000180025095e-35 -2.4999999999999996 -57.599998474121087 158.50000000000003 0.72500002384185802 78.250000000000014 2.2050000429153447 -7.4999999999999991 0.50499999523162853 -75.065002441406236 58.725000381469734 83.500000000000014 22.675000190734867 37.850000381469734 -39.119998931884759 86.649997711181655
decision_type=2 2 2 2 2 2 2 2 2 2 2 2 2 2 2 2 2 2 2 2 2 2 2 2 2 2 2 2 2 2
left_child=1 2 -1 -4 6 -6 7 -5 27 -8 23 -3 13 25 15 16 -14 20 -17 -19 -15 22 -18 -2 -25 -13 28 -9 -27 -30
right_child=10 11 3 4 5 -7 9 8 -10 -11 -12 12 14 17 -16 18 21 19 -20 -21 -22 -23 -24 24 -26 26 -28 -29 29 -31
leaf_value=0.00092040587348611754 0.0070658501576000635 0.00014087126945151 0.00052313082343177265 0.0026618292274052592 0.0051621503233419443 0.042117958393879239 0.0041634222561562507 0.05459734832813197 -0.0023113629956626231 0.037426827672649834 0.014984199542690209 0.00036613418785688137 0.0025840685798603799 0.072165080337297349 -0.00033765568466177223 0.0031089859602757663 0.052692745956168935 0.034458359646109431 0.045212552687153219 -0.00549876250144912 0.033056519136709331 0.061147682555019858 0.01259415515884757 -0.00090696011673674056 0.0040260348490503816 -0.0080339386326367737 0.054747395749603002 0.026022076932713391 -0.0099391077860043614 0.02400570682460262
leaf_weight=15205 578 208771 1136 1373 38 50 27 34 45 34 108 10928 107 21 737 251 33 26 20 41 34 53 25 1245 997 122 42 23 26 31
leaf_count=15205 578 208771 1136 1373 38 50 27 34 45 34 108 10928 107 21 737 251 33 26 20 41 34 53 25 1245 997 122 42 23 26 31
internal_value=0 0.000291825 0.0013516 0.00372709 0.00596828 0.0261598 0.00481147 0.00407152 0.0230471 0.0227037 0.00293277 0.00020578 0.00129013 0.0008088 0.00571516 0.0148377 0.0255552 0.02713 0.00621626 0.010007 0.0479889 0.0476986 0.0354089 0.00247122 0.0012867 0.000520775 0.00816747 0.043067 -0.0027619 0.00852211
internal_weight=0 239233 17965 2760 1624 88 1536 1475 102 61 2928 221268 12497 11271 1226 489 218 122 271 67 55 111 58 2820 2242 11149 221 57 179 57
internal_count=242161 239233 17965 2760 1624 88 1536 1475 102 61 2928 221268 12497 11271 1226 489 218 122 271 67 55 111 58 2820 2242 11149 221 57 179 57
is_linear=0
shrinkage=0.1


Tree=17
num_leaves=31
num_cat=0
split_feature=39 17 38 2 66 30 8 13 35 76 33 66 13 26 2 78 41 36 32 8 11 15 35 16 31 33 36 34 67 18
split_gain=1.41752 3.55286 2.2011 2.15577 1.97214 1.80208 1.59901 2.47733 2.98248 2.04604 3.15076 1.67473 2.73544 1.54566 4.04616 1.60667 2.72158 1.46833 1.3118 1.25978 1.1587 3.60218 5.82542 2.61353 1.95427 6.39682 2.7935 5.9811 3.11786 2.43165
threshold=194.50000000000003 5.2000000476837167 -2.1650000810623165 37.764999389648445 -46.333330154418938 32.350000381469734 -1.6750000119209287 93.950000762939467 1.0000000180025095e-35 -783.30224609374989 322.50000000000006 -31.166666984558102 96.125000000000014 12.84999990463257 38.48500061035157 -2.2222222089767452 0.59186851978302013 -1.0000000180025095e-35 160.50000000000003 3.1000000238418584 7.2049999237060556 113.50000000000001 1.0000000180025095e-35 807.50000000000011 21.349999427795414 327.50000000000006 -1.0000000180025095e-35 67.539997100830092 -0.33333341777324671 77.500000000000014
decision_type=2 2 2 2 2 2 2 2 2 2 2 2 2 2 2 2 2 2 2 2 2 2 2 2 2 2 2 2 2 2
left_child=2 5 13 20 -5 -2 11 8 -8 17 -11 -3 -13 14 -1 16 -15 -9 -14 -17 -4 23 -23 24 29 -26 -27 28 -28 -22
right_child=1 6 3 4 -6 -7 7 9 -10 10 -12 12 18 15 -16 19 -18 -19 -20 -21 21 22 -24 -25 25 26 27 -29 -30 -31
leaf_value=-2.9872327660385554e-05 0.049083144062509139 -0.00045981200598872729 0.00016973320514211359 0.00069936135754487805 0.0036872780787764342 0.010720426470041275 0.021254795063287021 0.011998832456229888 -0.0034885719030174969 0.050691182030872861 0.013294087339874725 -0.0036006737101290914 0.046622776629572565 0.041778533567708956 0.0045343493928173568 0.00056885961190188724 0.007655182802760653 -0.013996876869350673 0.015628266976111468 0.021333742652448917 0.0025996500738072934 -0.0013899512787456396 0.045178457316554461 0.032598545817801583 0.001053001289175073 0.0064185112220884275 0.033191297720703818 0.012284138570416027 0.080325858165388522 0.00027653189719350829
leaf_weight=154477 24 1345 42599 4513 4327 25 60 97 259 33 71 56 22 27 1967 508 174 28 36 31 5528 61 48 26 1152 132 36 113 23 24363
leaf_count=154477 24 1345 42599 4513 4327 25 60 97 259 33 71 56 22 27 1967 508 174 28 36 31 5528 61 48 26 1152 132 36 113 23 24363
internal_value=0 0.00290596 0.000268993 0.000685854 0.00216189 0.0295103 0.00225642 0.00686206 0.00116535 0.0147977 0.0251605 0.000526548 0.0121639 4.90815e-05 2.75145e-05 0.00460858 0.0122389 0.00617579 0.0273848 0.00176313 0.000509721 0.000969765 0.0191172 0.000906715 0.000880429 0.00445796 0.017361 0.0257587 0.0515658 0.000706166
internal_weight=0 2056 240105 82921 8840 49 2007 548 319 229 104 1459 114 157184 156444 740 201 125 58 539 74081 31482 109 31373 31347 1456 304 172 59 29891
internal_count=242161 2056 240105 82921 8840 49 2007 548 319 229 104 1459 114 157184 156444 740 201 125 58 539 74081 31482 109 31373 31347 1456 304 172 59 29891
is_linear=0
shrinkage=0.1


Tree=18
num_leaves=31
num_cat=0
split_feature=39 39 18 39 80 10 7 2 27 79 35 38 35 27 0 34 87 19 57 35 38 75 66 42 2 79 3 16 25 81
split_gain=2.92868 13.2605 4.66593 5.25039 5.46046 3.11628 3.66865 3.01205 4.66352 4.17382 3.25127 3.37926 2.58553 2.32141 2.31956 7.67397 3.52894 3.09089 2.55354 2.2422 2.48286 2.0777 2.53065 1.94104 1.91453 1.82018 2.07264 2.38919 1.67434 1.63229
threshold=34.500000000000007 59.500000000000007 81.500000000000014 101.50000000000001 -1.5833334922790525 0.48499999940395361 39.250000000000007 38.710000991821296 0.28499999642372137 -34.979167938232415 1.0000000180025095e-35 -2.3249999284744258 1.0000000180025095e-35 15.525000095367433 73.750000000000014 62.305000305175788 -50.666717529296868 1.1649999618530276 0.0027870576595887546 1.0000000180025095e-35 -0.13499999791383741 -24.611108779907223 -43.666666030883782 1.5000000000000002 37.674999237060554 -37.208339691162102 71.250000000000014 216.50000000000003 4.6250000000000009 -13.055042266845701
decision_type=2 2 2 2 2 2 2 2 2 2 2 2 2 2 2 2 2 2 2 2 2 2 2 2 2 2 2 2 2 2
left_child=25 -2 5 7 12 13 21 8 14 -10 11 -11 -5 -3 -4 16 19 18 -18 20 -16 -7 -23 -21 -8 28 27 -27 -1 -15
right_child=1 2 3 4 -6 6 24 -9 9 10 -12 -13 -14 29 15 -17 17 -19 -20 23 -22 22 -24 -25 -26 26 -28 -29 -30 -31
leaf_value=0.00028734269383589743 0.00011125437774582399 0.00055610399264050133 0.0026657415935433058 0.040475733447819955 0.0018039147472638458 0.0037200248284355412 -0.0066692892314964228 0.036365134584215968 0.066506422790033479 0.0166002664010267 0.005111216768049277 0.06419243779033422 0.012735803939756894 0.031350474647201955 0.029640391613451802 0.004603147685803324 0.015628409694413162 0.00066706981307187053 0.04942288567932944 0.031901289463381881 0.064401018110891953 0.024783076175654228 0.0092003748259123636 0.0032352916677208508 0.0156952527999554 0.0028487214032046132 -0.00023880206454935895 0.027329496298803064 0.001833862932482797 0.0018763386534855647
leaf_weight=62537 47753 5032 747 40 3063 269 228 39 21 37 78 25 210 42 98 1298 327 147 24 44 26 163 289 51 46 1441 110128 41 7883 34
leaf_count=62537 47753 5032 747 40 3063 269 228 39 21 37 78 25 210 42 98 1298 327 147 24 44 26 163 289 51 46 1441 110128 41 7883 34
internal_value=0 0.000867313 0.00378411 0.00569884 0.00296376 0.00181541 0.0069353 0.00875804 0.00838969 0.0249337 0.0186978 0.0357907 0.0171742 0.000818095 0.00742532 0.00918979 0.0174931 0.0128408 0.0179391 0.0280723 0.0369289 0.0106786 0.0148198 0.0165122 -0.00291466 6.23667e-05 -0.000188812 0.00352599 0.000460464 0.0181647
internal_weight=0 60131 12378 6275 3313 6103 995 2962 2923 161 140 62 250 5108 2762 2015 717 498 351 219 124 721 452 95 274 182030 111610 1482 70420 76
internal_count=242161 60131 12378 6275 3313 6103 995 2962 2923 161 140 62 250 5108 2762 2015 717 498 351 219 124 721 452 95 274 182030 111610 1482 70420 76
is_linear=0
shrinkage=0.1


Tree=19
num_leaves=31
num_cat=0
split_feature=38 38 13 21 29 39 36 18 77 30 77 39 10 33 87 41 85 35 30 71 32 9 18 39 68 31 32 22 66 8
split_gain=1.634 2.00489 1.6583 2.60524 1.93184 1.63655 1.76653 4.30425 3.80126 3.42804 2.76992 1.57357 1.52539 1.53616 1.63498 1.43729 1.52549 2.59379 1.53563 1.44266 1.3987 1.10071 1.80094 2.24783 1.27191 2.60009 1.09971 1.52657 1.65072 2.58398
threshold=-0.30500000715255732 -45.245000839233391 96.075000762939467 81.250000000000014 10.375000000000002 97.500000000000014 -1.0000000180025095e-35 108.25000000000001 -0.35417175292968744 24.050000190734867 -17.729171752929684 41.500000000000007 0.58499997854232799 239.50000000000003 -999.91680908203114 0.80622577667236339 2.7499985694885258 1.0000000180025095e-35 29.050000190734867 -0.083333432674407945 400.50000000000006 18.650000572204593 74.500000000000014 297.50000000000006 66.125000000000014 15.750000000000002 156.50000000000003 1.2649999856948855 -45.055555343627923 -0.47499999403953547
decision_type=2 2 2 2 2 2 2 2 2 2 2 2 2 2 2 2 2 2 2 2 2 2 2 2 2 2 2 2 2 2
left_child=1 5 11 15 -5 -1 9 20 -9 -7 -11 -2 26 14 -14 16 17 18 19 -4 -8 22 24 -24 -6 -26 -13 28 29 -28
right_child=2 -3 3 4 21 6 7 8 -10 10 -12 12 13 -15 -16 -17 -18 -19 -20 -21 -22 -23 23 -25 25 -27 27 -29 -30 -31
leaf_value=0.00040271518374576664 0.00022749102500860298 -0.00020528896483335232 0.014768725070594388 0.0028541105122687556 0.0039025922692485951 0.00025472176932199024 0.00024147438811940379 0.053710959312216991 0.0080322226015280707 0.039426613160792517 0.011389195222995785 0.0018433699092294091 0.029804982494955001 -0.0011167428161591123 0.0080008101698463962 0.014079812300173349 -0.0023464339164396128 0.0020304289564271184 -0.0022415173895381116 0.037693215260638839 0.00855272437025488 -0.00085668356974965697 -0.0024108134350412855 0.030749206032071798 0.03848303749691695 -0.0024952684653302033 0.027071679870669659 -0.0035509608084988648 -0.00086863602335981852 0.0010255323945666138
leaf_weight=60506 54434 104688 66 4592 1019 186 1946 29 49 51 114 6815 38 177 362 222 204 238 27 47 226 3882 770 21 32 30 65 936 297 92
leaf_count=60506 54434 104688 66 4592 1019 186 1946 29 49 51 114 6815 38 177 362 222 204 238 27 47 226 3882 770 21 32 30 65 936 297 92
internal_value=0 6.30884e-05 0.000626208 0.00175061 0.00132449 0.000508299 0.00296445 0.00193512 0.0250153 0.00956269 0.0200553 0.000427888 0.00167002 0.00663989 0.0100722 0.00723394 0.00462262 0.0083837 0.0191843 0.0243037 0.00110627 0.000103772 0.00209548 -0.00153046 0.0047487 0.0186548 0.00132052 -0.00124293 0.00351547 0.011809
internal_weight=0 167795 74366 11150 10346 63107 2601 2250 78 351 165 63216 8782 577 400 804 582 378 140 113 2172 5754 1872 791 1081 62 8205 1390 454 157
internal_count=242161 167795 74366 11150 10346 63107 2601 2250 78 351 165 63216 8782 577 400 804 582 378 140 113 2172 5754 1872 791 1081 62 8205 1390 454 157
is_linear=0
shrinkage=0.1


Tree=20
num_leaves=31
num_cat=0
split_feature=14 39 22 14 88 8 10 43 75 3 64 77 23 38 3 32 85 38 39 10 31 41 8 35 77 38 85 87 19 76
split_gain=2.30064 2.52039 3.43694 2.91045 2.79805 2.62953 2.05383 1.69302 2.31068 1.67132 3.24986 3.88048 2.80964 2.36019 1.35529 2.28662 2.7582 1.3288 4.26653 5.98095 10.1002 8.40664 5.6706 6.16891 8.74475 6.9169 3.92715 2.25382 1.99449 3.10918
threshold=22.500000000000004 207.50000000000003 1.9249999523162844 34.500000000000007 -8.000027656555174 -23.499999999999996 0.50499999523162853 132.58499908447268 -27.215277671813961 79.250000000000014 44.625000000000007 -20.479171752929684 3.7500000000000004 -75.065002441406236 123.12500000000001 568.00000000000011 -12.481488704681395 -196.11500549316403 65.500000000000014 0.78999999165534984 18.625000000000004 0.94129136204719555 -8.8000001907348615 1.0000000180025095e-35 -8.0833349227905256 -0.03499999921768903 12.379629611968996 309.33332824707037 4.6050000190734872 -1774.5419921874998
decision_type=2 2 2 2 2 2 2 2 2 2 2 2 2 2 2 2 2 2 2 2 2 2 2 2 2 2 2 2 2 2
left_child=17 6 3 7 -5 -6 9 8 -3 10 -2 -12 -11 -13 15 -8 -17 -1 -19 20 22 -21 -20 24 26 -26 27 -24 29 -22
right_child=1 2 -4 4 5 -7 14 -9 -10 12 11 13 -14 -15 -16 16 -18 18 19 21 28 -23 23 -25 25 -27 -28 -29 -30 -31
leaf_value=0.0010398908497942379 0.00032566798970901063 -0.0014086313207041135 -0.0001013232704661487 0.049391932851251437 0.036547961198659829 0.0055298604170481366 0.0036345243543266987 0.0010606924324859809 0.042625833789889628 0.00040270726319135606 0.0042181521931008714 0.017443536727044445 0.030519118353784565 0.047572687268257141 0.00067625449391495152 -0.0047107767313718796 0.042352182858369572 -0.0001002048627844473 -0.0015826078780588411 0.041832891614227506 0.061479021965836489 -0.0033853706816832224 0.0081724046444406322 0.0018395134673603556 -0.000644810449531568 0.028446662831292664 0.061225116300659299 0.035822618118411788 0.0050365816103294494 0.022695482784769683
leaf_weight=12838 551 22 373 34 43 75 2931 162 26 42452 185 78 31 39 2069 20 33 174604 3003 91 24 75 49 1599 336 108 39 74 48 149
leaf_count=12838 551 22 373 34 43 75 2931 162 26 42452 185 78 31 39 2069 20 33 174604 3003 91 24 75 49 1599 336 108 39 74 48 149
internal_value=0 0.000823424 0.0066353 0.0135766 0.024116 0.0168331 0.000735145 0.00594816 0.0224434 0.000512681 0.00489535 0.0132327 0.000424683 0.0274866 0.00264306 0.00400677 0.0245926 5.6928e-05 -1.31017e-05 0.00270514 0.00213343 0.021403 0.00124491 0.00509572 0.0136876 0.00643149 0.0335747 0.0248075 0.0230719 0.0280759
internal_weight=0 49124 735 362 152 118 48389 210 48 43336 853 302 42483 117 5053 2984 53 193037 180199 5595 5429 166 5208 2205 606 444 162 123 221 173
internal_count=242161 49124 735 362 152 118 48389 210 48 43336 853 302 42483 117 5053 2984 53 193037 180199 5595 5429 166 5208 2205 606 444 162 123 221 173
is_linear=0
shrinkage=0.1


Tree=21
num_leaves=31
num_cat=0
split_feature=6 3 36 39 14 28 10 57 35 42 14 39 33 39 62 41 22 36 62 38 35 83 30 76 88 24 33 79 79 9
split_gain=2.7433 2.01247 1.36593 1.31081 2.54778 1.28247 2.41786 2.09923 2.22561 1.49858 1.41297 1.32273 1.23955 1.14812 2.22444 1.37788 2.02362 1.60737 1.31073 1.27824 1.52351 1.82578 1.35162 1.17768 1.13043 1.13016 3.17306 1.05799 1.05537 1.30188
threshold=22.875000000000004 94.625000000000014 -1.0000000180025095e-35 42.500000000000007 590.00000000000011 25.550000190734867 0.35500000417232519 5.669819074682892e-05 1.0000000180025095e-35 8.5000000000000018 63.500000000000007 31.500000000000004 257.50000000000006 111.50000000000001 -3.4999999999999996 0.62520357966423046 2.2350000143051152 -1.0000000180025095e-35 -7.4999999999999991 -69.499999999999986 1.0000000180025095e-35 444.28222656250006 27.750000000000004 -466.26049804687494 -15.333334445953367 11.750000000000002 215.50000000000003 14.583332538604738 -53.97917175292968 26.524999618530277
decision_type=2 2 2 2 2 2 2 2 2 2 2 2 2 2 2 2 2 2 2 2 2 2 2 2 2 2 2 2 2 2
left_child=25 13 5 -4 27 6 -3 10 -9 11 -8 -7 -12 15 -15 16 17 -2 -18 22 -21 -22 -19 -23 -13 -1 -27 -5 -26 -30
right_child=1 2 3 4 -6 9 7 8 -10 -11 12 24 -14 14 -16 -17 18 19 -20 20 21 23 -24 -25 28 26 -28 -29 29 -31
leaf_value=3.1019211475111445e-05 0.00031726272027299274 0.0014564033790979789 -6.757879273667178e-05 0.0012518046149241097 0.021964099642730529 -4.1741585221616981e-05 0.00475872799179098 0.00055100871508734098 0.030799554457267127 0.024575767321167171 0.008067220856470091 0.0070222735997053434 0.040044178610498256 0.022990486078055167 0.0013941818112997632 0.0016739625445811122 0.01154268116503954 0.011506052790007191 0.045888751447200782 -0.00062753947661120513 0.0037400785693898798 0.038182015776530742 0.035096252212921779 0.0088146905499425811 0.017887622350826859 0.046299683777615432 -0.002284773773082146 0.0098843072493541607 0.0027813906228839388 -0.00088515184216850533
leaf_weight=199282 384 1648 21053 4152 62 5736 596 36 75 27 27 442 22 82 114 3320 25 92 20 169 80 36 33 22 40 20 41 147 2932 1446
leaf_count=199282 384 1648 21053 4152 62 5736 596 36 75 27 27 442 22 82 114 3320 25 92 20 169 80 36 33 22 40 20 41 147 2932 1446
internal_value=0 0.000917401 0.000686065 0.000259287 0.00183725 0.00151865 0.00360439 0.00828676 0.0209892 0.00104665 0.00610076 0.000986696 0.0224242 0.00294911 0.0104294 0.00259844 0.00616322 0.00502474 0.0268076 0.00920917 0.0057382 0.0135339 0.0177339 0.0270427 0.00220051 3.5185e-05 0.0136446 0.00154698 0.00171811 0.00157038
internal_weight=0 42818 38441 25414 4361 13027 2404 756 111 10623 645 10596 49 4377 196 4181 861 816 45 432 307 138 125 58 4860 199343 61 4299 4418 4378
internal_count=242161 42818 38441 25414 4361 13027 2404 756 111 10623 645 10596 49 4377 196 4181 861 816 45 432 307 138 125 58 4860 199343 61 4299 4418 4378
is_linear=0
shrinkage=0.1


Tree=22
num_leaves=31
num_cat=0
split_feature=2 39 13 76 38 39 0 78 33 35 38 38 13 36 10 38 31 32 66 38 30 38 76 35 34 36 44 73 50 11
split_gain=2.70008 2.08912 5.76595 2.13516 2.50035 1.69964 1.26971 1.12929 1.8151 1.39027 1.80035 1.6591 1.72955 1.38563 1.29667 1.10626 1.42437 2.66511 1.10168 1.07622 4.98464 1.67434 1.36422 1.02051 1.59614 1.457 1.22626 2.00945 1.46993 1.89571
threshold=38.159999847412116 71.500000000000014 97.424999237060561 -408.30218505859369 -6.944999933242797 36.500000000000007 97.750000000000014 -0.33333328366279596 160.50000000000003 1.0000000180025095e-35 -89.904998779296861 -28.904999732971188 91.250000000000014 -1.0000000180025095e-35 0.90999999642372142 -0.03499999921768903 23.150000572204593 431.00000000000006 -37.111108779907219 -81.200000762939439 33.95000076293946 -3.7350000143051143 -1134.9272460937498 1.0000000180025095e-35 63.620000839233406 -1.0000000180025095e-35 78.750000000000014 -37.777776718139641 0.042279914021492011 7.0950000286102304
decision_type=2 2 2 2 2 2 2 2 2 2 2 2 2 2 2 2 2 2 2 2 2 2 2 2 2 2 2 2 2 2
left_child=6 5 19 4 -4 -2 -1 -7 -9 11 -11 12 -10 14 -12 16 -8 -18 -5 22 21 -21 -3 -17 25 -25 28 -28 -27 -30
right_child=1 2 3 18 -6 7 15 8 9 10 13 -13 -14 -15 -16 23 17 -19 -20 20 -22 -23 -24 24 -26 26 27 -29 29 -31
leaf_value=-1.1234333045829062e-05 0.00061902666112253633 -0.00086325904620545256 0.051670539419393285 0.017971114967675769 0.0204706824783768 0.001410850198885453 0.00020119917540221234 0.00074090586805885487 -0.0028377166076097638 0.032305908674488258 0.019751121459576568 -0.004015051071775389 0.027435636568976487 0.0002498646123478046 -0.0032759709926000954 0.000341415200667247 0.0029991606257315372 0.036650820551828174 -0.010366374335211257 0.015725701563060284 0.041341065838932989 -0.001725388065978454 0.023166916057191515 0.0020195439575276136 0.00025105969461329867 0.0086116267757935707 0.017303662315749056 0.0027611647347636284 0.0072714276773774116 0.047872434313530512
leaf_weight=185642 6357 42 37 34 84 690 36173 297 32 49 156 111 46 78 29 4415 1213 24 23 60 30 657 54 2166 2225 368 106 917 23 23
leaf_count=185642 6357 42 37 34 84 690 36173 297 32 49 156 111 46 78 29 4415 1213 24 23 60 30 657 54 2166 2225 368 106 917 23 23
internal_value=0 0.00188493 0.00613995 0.022494 0.0300111 0.00133115 0.000106963 0.00437349 0.00693516 0.0106072 0.0147072 0.00383895 0.0150158 0.0114284 0.0161415 0.000567423 0.000315306 0.00365206 0.00653669 0.00268677 0.00140588 -0.000265046 0.0126537 0.00148822 0.00235698 0.00365748 0.00612635 0.00426801 0.0107183 0.0275719
internal_weight=0 8866 1021 178 121 7845 233295 1488 798 501 312 189 78 263 185 47653 37410 1237 57 843 747 717 96 10243 5828 3603 1437 1023 414 46
internal_count=242161 8866 1021 178 121 7845 233295 1488 798 501 312 189 78 263 185 47653 37410 1237 57 843 747 717 96 10243 5828 3603 1437 1023 414 46
is_linear=0
shrinkage=0.1


Tree=23
num_leaves=31
num_cat=0
split_feature=31 20 2 50 39 6 10 66 55 16 13 85 34 34 79 21 39 26 88 20 44 61 8 38 86 35 9 35 41 7
split_gain=1.56646 2.18796 2.10042 1.27481 2.06481 3.52049 1.37189 1.26656 1.29365 2.07808 3.53209 2.20996 2.64679 1.50915 1.15059 1.14645 1.08871 2.93185 5.01015 2.59981 1.87772 2.29069 1.29622 3.22538 2.15245 3.39345 1.58078 2.98486 1.8517 1.63899
threshold=26.94999980926514 0.33500000834465032 38.369998931884773 0.1651510298252106 56.500000000000007 21.125000000000004 0.55500000715255748 -26.111111640930172 0.0032999324612319474 51.500000000000007 68.250000000000014 26.666658401489261 69.99499893188478 85.490001678466811 -55.458343505859368 118.25000000000001 89.500000000000014 10.650000095367433 -12.499999046325682 2.9500000476837163 98.750000000000014 -127.74999999999999 -7.3749999999999991 -123.74499893188475 0.074074096977710738 1.0000000180025095e-35 16.250000000000004 1.0000000180025095e-35 0.50928801298141491 29.250000000000004
decision_type=2 2 2 2 2 2 2 2 2 2 2 2 2 2 2 2 2 2 2 2 2 2 2 2 2 2 2 2 2 2
left_child=2 -2 3 6 -5 -6 16 8 13 15 -11 12 -12 -4 -3 -10 -1 20 19 -19 21 -18 -23 24 -24 -26 27 -25 -28 -30
right_child=1 14 7 4 5 -7 -8 -9 9 10 11 -13 -14 -15 -16 -17 17 18 -20 -21 -22 22 23 26 25 -27 28 -29 29 -31
leaf_value=-5.6717555482089274e-05 0.0019574976223308109 0.0063769822903707923 0.00085769652121845243 0.0014401569203494142 0.0024826741734043111 0.037260139970616862 0.00088940489773824409 0.019511654431976024 -0.0012048223500742633 0.0025992937968112532 0.02294229706319479 0.0034494940191507339 0.061801373586058618 0.019929720776244289 0.027724654890596868 0.0059337754071413472 0.024045802264109906 0.061927507698535923 0.0017528119175855457 0.0199502209511896 -0.0022939295614067511 0.00034774143050444903 -0.0057884995542142707 0.036882731043978739 0.060309480472157395 0.015117097466632172 -0.004946225764363355 0.0036194844752229674 0.0046741847675277615 -0.0079426431517421667
leaf_weight=206038 2735 51 3413 3859 86 44 18140 42 425 160 65 34 24 42 50 478 46 25 116 36 1422 3005 23 38 24 54 321 93 1159 113
leaf_count=206038 2735 51 3413 3859 86 44 18140 42 425 160 65 34 24 42 50 478 46 25 116 36 1422 3005 23 38 24 54 321 93 1159 113
internal_value=0 0.00249126 0.000127165 8.53133e-05 0.00185774 0.0142535 5.46603e-05 0.00222417 0.00206773 0.00491732 0.0123945 0.0251363 0.0334211 0.00108954 0.0169451 0.00257397 -1.65931e-05 0.00126019 0.0139532 0.037154 0.000903461 0.00183592 0.0016244 0.00372652 0.0210952 0.0290224 0.00270898 0.0132684 0.00184063 0.00355335
internal_weight=0 2836 239325 234642 3989 130 230653 4683 4641 1186 283 123 89 3455 101 903 212513 6475 177 61 6298 4876 4830 1825 101 78 1724 131 1593 1272
internal_count=242161 2836 239325 234642 3989 130 230653 4683 4641 1186 283 123 89 3455 101 903 212513 6475 177 61 6298 4876 4830 1825 101 78 1724 131 1593 1272
is_linear=0
shrinkage=0.1


Tree=24
num_leaves=31
num_cat=0
split_feature=6 3 39 10 32 35 39 33 31 79 87 43 76 50 36 28 66 64 4 28 41 38 83 11 62 76 30 12 70 71
split_gain=1.70902 2.0275 4.88894 3.64071 4.19135 3.43027 3.2271 5.81515 4.70219 2.22623 2.0397 2.87737 1.7508 2.38873 1.58437 1.29876 1.29522 3.14966 1.11496 1.05839 0.965068 1.06546 1.8822 1.75065 3.19285 4.08827 1.65715 2.22136 1.60248 0.901196
threshold=19.625000000000004 93.125000000000014 50.500000000000007 0.51499998569488536 532.50000000000011 1.0000000180025095e-35 98.500000000000014 527.50000000000011 10.949999809265138 -44.979167938232415 1391.3957519531252 136.12500000000003 -853.20849609374989 0.10343892872333528 -1.0000000180025095e-35 31.125000000000004 -39.666666030883782 63.125000000000007 65.08499908447267 26.925000190734867 0.76935565471649181 -50.965000152587884 831.74523925781261 7.0250000953674325 -2.4999999999999996 -351.67724609374994 42.850000381469734 28.250000000000004 -8.6458339691162092 -0.3333334326744079
decision_type=2 2 2 2 2 2 2 2 2 2 2 2 2 2 2 2 2 2 2 2 2 2 2 2 2 2 2 2 2 2
left_child=-1 20 -3 6 5 16 10 18 -9 -7 12 -12 13 -4 15 -11 17 -5 -8 -20 21 23 -23 -2 -25 -26 27 -24 -29 -22
right_child=1 2 3 4 -6 9 7 8 -10 14 11 -13 -14 -15 -16 -17 -18 -19 19 -21 29 22 26 24 25 -27 -28 28 -30 -31
leaf_value=-6.81335678032586e-05 0.0045852525933335227 8.441153211026678e-05 0.0057978124342275682 0.024948788434739799 0.052693747099311586 0.020622557238317452 0.0059561221117082133 0.0069275948712054424 0.064739759111156078 0.017165717957439004 4.0410761721432214e-05 0.045375399650739778 0.0020696506487589013 0.031253365520387891 -0.0026487228030187861 -0.00024294571859049207 0.0039645371985608255 -0.0043736715801060205 0.0017008219496997376 -0.0027407665533300874 0.0031578747513952982 0.0012612311053347546 0.0083523389550113902 0.0023782346056153377 0.057587632082183572 0.0036814480787143115 -0.0064830247452482594 0.049648258635508168 0.013105142382638796 0.00050848748904612007
leaf_weight=150402 375 75683 1233 197 21 65 208 34 24 91 28 28 2745 38 370 81 69 45 716 2140 1889 1355 109 60 34 24 40 28 21 4008
leaf_count=150402 375 75683 1233 197 21 65 208 34 24 91 28 28 2745 38 370 81 69 45 716 2140 1889 1355 109 60 34 24 40 28 21 4008
internal_value=0 0.00047948 0.000334774 0.00266457 0.00852083 0.00751034 0.00190018 -0.000518669 0.0308499 0.00313483 0.00375471 0.0227079 0.00349042 0.00655888 0.00103759 0.00896745 0.0160503 0.0194963 -0.00111246 -0.00162726 0.00200644 0.00387777 0.00259202 0.00792799 0.0185511 0.0352816 0.0116992 0.0163023 0.0339869 0.00135717
internal_weight=0 91759 83816 8133 939 918 7194 3122 58 607 4072 56 4016 1271 542 172 311 242 3064 2856 7943 2046 1553 493 118 58 198 158 49 5897
internal_count=242161 91759 83816 8133 939 918 7194 3122 58 607 4072 56 4016 1271 542 172 311 242 3064 2856 7943 2046 1553 493 118 58 198 158 49 5897
is_linear=0
shrinkage=0.1


Tree=25
num_leaves=31
num_cat=0
split_feature=39 2 22 25 10 31 14 17 38 39 35 12 84 25 36 0 85 41 11 35 31 50 54 18 17 17 10 30 6 39
split_gain=8.24413 2.75472 5.37922 5.57927 3.46653 3.24455 2.39067 2.35556 2.19214 2.14489 1.56163 1.93559 3.05413 1.50546 1.87112 1.30033 1.33211 2.57969 1.85699 2.49017 1.24703 1.95252 1.73784 1.69269 3.70661 2.11461 1.67735 2.18075 1.40117 1.31304
threshold=53.500000000000007 37.805000305175788 2.0749999284744267 3.6049998998641972 0.88999998569488536 9.4199995994567889 104.50000000000001 8.4749999046325701 -52.770000457763665 83.500000000000014 1.0000000180025095e-35 28.250000000000004 -0.17592593282461164 4.2449998855590829 -1.0000000180025095e-35 104.25000000000001 -20.592596054077145 0.51926451921463024 7.305000066757203 1.0000000180025095e-35 20.650000572204593 -0.059500291943550103 -0.010024189949035643 83.500000000000014 10.550000190734865 9.7500000000000018 0.75499999523162853 23.150000572204593 28.625000000000004 88.500000000000014
decision_type=2 2 2 2 2 2 2 2 2 2 2 2 2 2 2 2 2 2 2 2 2 2 2 2 2 2 2 2 2 2
left_child=15 20 4 -4 6 8 10 -6 -5 -7 11 -3 -13 14 -8 -1 -17 18 -18 -20 23 -22 -23 26 25 28 -2 -28 -25 -30
right_child=1 2 3 5 7 9 13 -9 -10 -11 -12 12 -14 -15 -16 16 17 -19 19 -21 21 22 -24 24 -26 -27 27 -29 29 -31
leaf_value=-0.00011541269598959247 0.00023699165143884821 -0.0027460197567619306 0.050858318077569659 0.057042869099456328 0.042985712454931158 0.024639782538482299 0.051245352431483898 0.002759873230631153 0.017520312861435943 0.00037258697908050965 0.00017595476879414887 0.026123898014934227 0.0057277705570846866 -0.0022601876221597194 0.012751338763960771 0.0016683038406615403 0.0045460838474362169 2.6959035161016386e-05 0.0087320073603246451 0.047819719250713079 0.026319628805768765 0.030939908077319462 0.003510750055888562 0.0019681084124794413 0.041976995533332229 0.02287606437343593 0.028528074000496419 -0.0028759496104789947 0.01311963870300858 0.0027745686073818907
leaf_weight=199741 6357 186 44 23 37 48 23 24 36 151 1247 88 443 20 28 8416 129 18221 39 28 44 24 615 5491 24 51 48 41 227 267
leaf_count=199741 6357 186 44 23 37 48 23 24 36 151 1247 88 443 20 28 8416 129 18221 39 28 44 24 615 5491 24 51 48 41 227 267
internal_value=0 0.00234999 0.00546772 0.0179452 0.00366992 0.0123321 0.00296582 0.0271592 0.0329274 0.00622598 0.00231414 0.00603284 0.00910792 0.0209926 0.0301114 -2.7607e-05 0.000626006 0.000149708 0.0115609 0.0250672 0.00178313 0.00594397 0.00454095 0.00155589 0.00275577 0.00259982 0.000427861 0.0140611 0.00242704 0.00752827
internal_weight=0 15587 2398 302 2096 258 2035 61 59 199 1964 717 531 71 51 226574 26833 18417 196 67 13189 683 639 12506 6060 6036 6446 89 5985 494
internal_count=242161 15587 2398 302 2096 258 2035 61 59 199 1964 717 531 71 51 226574 26833 18417 196 67 13189 683 639 12506 6060 6036 6446 89 5985 494
is_linear=0
shrinkage=0.1


Tree=26
num_leaves=31
num_cat=0
split_feature=39 43 27 80 41 27 34 13 38 85 75 81 82 10 77 28 26 35 7 85 81 88 6 35 38 12 0 41 84 13
split_gain=2.89902 1.82668 3.48821 3.26235 2.96624 3.53551 4.11624 1.84617 3.20248 2.04887 2.68848 2.2529 1.54244 2.03338 1.51304 1.9219 1.46299 1.25142 1.15291 1.07756 0.99481 0.987487 0.990947 0.975205 2.23024 7.61392 2.32855 1.8544 1.53481 1.35389
threshold=76.500000000000014 143.25000000000003 4.5350000858306894 -9.958333492279051 0.4863117784261704 4.2200000286102304 87.544998168945327 82.299999237060561 -141.79499816894528 19.444437026977543 -24.333333015441891 -12.444446086883543 -0.36419756710529322 0.5249999761581422 -4.8333349227905265 32.45000076293946 1.5500000119209292 1.0000000180025095e-35 46.750000000000007 3.8148167133331303 -13.160495281219481 -7.5000002384185782 20.375000000000004 1.0000000180025095e-35 -0.024999999441206452 36.149999618530281 86.750000000000014 0.53576990962028515 2.425923347473145 99.450000762939467
decision_type=2 2 2 2 2 2 2 2 2 2 2 2 2 2 2 2 2 2 2 2 2 2 2 2 2 2 2 2 2 2
left_child=21 2 3 -2 -3 6 7 -6 9 11 -11 19 16 14 15 -14 -10 -15 -16 -9 -7 22 -1 24 27 26 -26 28 -5 -29
right_child=1 4 -4 23 5 20 -8 8 12 10 -12 -13 13 17 18 -17 -18 -19 -20 -21 -22 -23 -24 -25 25 -27 -28 29 -30 -31
leaf_value=9.1839660657146272e-05 0.034535648514117515 -0.0014913458476980225 0.03215228265949658 0.0073917783114691854 0.001169253956010611 0.042979702199327535 0.046691200331501342 0.054551566764712338 0.0070658460806083418 0.022026002350939464 -0.0075636050330018098 0.0017516968433152547 0.0084316574325857246 0.007169066718028437 0.0055514586722756939 0.034019722515030909 -0.0042529205175927311 0.033279966662327451 -0.0045633916437190815 0.028401329824700949 0.015759081870317462 -0.00014256141593419592 0.00080166127437976864 -0.00076651815889627406 0.023384434224239418 0.071298693716526029 -0.0060245675245920822 -4.5680205656003352e-05 0.036643667782967286 0.012700867558690324
leaf_weight=77519 28 914 35 71 1177 29 23 26 184 73 53 22 129 31 635 38 301 45 137 40 25 128684 26354 3365 42 20 75 1975 24 87
leaf_count=77519 28 914 35 71 1177 29 23 26 184 73 53 22 129 31 635 38 301 45 137 40 25 128684 26354 3365 42 20 75 1975 24 87
internal_value=0 0.00181548 0.000679534 0.000485838 0.00348986 0.00502382 0.00455399 0.00421876 0.00631284 0.0177568 0.00957958 0.0294651 0.00468017 0.00689681 0.00562346 0.0142541 4.12095e-05 0.0226295 0.00375647 0.0387029 0.0303776 4.25742e-05 0.000271931 0.000317364 0.00190728 0.0142794 0.00453251 0.00112147 0.0147817 0.000492123
internal_weight=0 9604 5722 5687 3882 2968 2914 2891 1714 214 126 88 1500 1015 939 167 485 76 772 66 54 232557 103873 5659 2294 137 117 2157 95 2062
internal_count=242161 9604 5722 5687 3882 2968 2914 2891 1714 214 126 88 1500 1015 939 167 485 76 772 66 54 232557 103873 5659 2294 137 117 2157 95 2062
is_linear=0
shrinkage=0.1


Tree=27
num_leaves=31
num_cat=0
split_feature=15 32 13 2 33 29 8 10 21 36 87 84 33 31 10 56 52 4 32 12 14 10 24 62 18 88 39 13 38 4
split_gain=1.32764 2.07167 3.84252 2.02416 1.72448 1.60616 2.47926 1.41158 2.58284 4.55559 3.54652 2.30528 1.1824 3.0727 1.82881 2.44257 0.869079 0.86378 0.969258 1.56411 1.51858 0.859434 1.37419 2.87184 1.09147 1.77492 1.3361 3.38916 7.38665 2.89643
threshold=53.500000000000007 402.50000000000006 82.599998474121108 36.395000457763679 109.50000000000001 8.2249999046325701 -7.8250000476837149 0.22500000149011615 108.25000000000001 -1.0000000180025095e-35 -41.500051498413079 19.805551528930668 190.50000000000003 19.44999980926514 0.66499999165534984 2.7500007152557377 -7.4505805969238268e-08 66.08499908447267 306.50000000000006 30.050000190734867 3398.5000000000005 0.45499999821186071 8.9499998092651385 -7.4999999999999991 123.50000000000001 0.49999666213989263 182.50000000000003 88.049999237060561 -19.060000419616696 81.750000000000014
decision_type=2 2 2 2 2 2 2 2 2 2 2 2 2 2 2 2 2 2 2 2 2 2 2 2 2 2 2 2 2 2
left_child=21 5 3 16 -4 6 12 -8 9 10 -9 -11 13 14 15 -2 -3 18 20 -20 -7 -1 24 -24 26 -26 -23 -28 -29 -30
right_child=1 2 4 -5 -6 17 7 8 -10 11 -12 -13 -14 -15 -16 -17 -18 -19 19 -21 -22 22 23 -25 25 -27 27 28 29 -31
leaf_value=-5.2810069179894897e-05 0.0017550322841360839 0.031143692201645725 0.016664416179286712 -0.00091975039532898287 0.051100283789520085 0.0014904510642628412 -0.0018854662105040527 0.024552047356135316 0.0061605200702694353 0.037343536710123658 0.080110884308815009 0.00078683934187975487 -0.0014435949065198519 0.041170842369042698 0.02712715812648336 0.036926390915177763 0.0099417226252563554 -0.00022835877008532403 0.034879317774396873 -0.0024168895811519844 0.028533763606988252 0.00034318025743475012 0.044899478270894008 -0.005737882161823412 0.00050544141029769732 0.038258832609280952 -0.0034009303088591556 0.0052254384416237218 0.074492268140117321 0.023638584429309481
leaf_weight=181978 1552 29 33 228 26 1850 93 27 277 23 20 69 846 21 30 20 58 7753 23 22 21 46650 21 24 33 20 198 171 24 21
leaf_count=181978 1552 29 33 228 26 1850 93 27 277 23 20 69 846 21 30 20 58 7753 23 22 21 46650 21 24 33 20 198 171 24 21
internal_value=0 0.00108384 0.00841876 0.00403201 0.0318395 0.000866927 0.00289755 0.00925232 0.0117423 0.0228656 0.0481941 0.00992601 0.00158747 0.00316743 0.00266926 0.00220251 0.017009 0.000241507 0.0021428 0.0166456 0.00179398 4.57821e-05 0.000426207 0.0178929 0.000409525 0.014752 0.000393374 0.00604925 0.0147119 0.0507605
internal_weight=0 13021 374 315 59 12647 2978 509 416 139 47 92 2469 1623 1602 1572 87 9669 1916 45 1871 229140 47162 45 47117 53 47064 414 216 45
internal_count=242161 13021 374 315 59 12647 2978 509 416 139 47 92 2469 1623 1602 1572 87 9669 1916 45 1871 229140 47162 45 47117 53 47064 414 216 45
is_linear=0
shrinkage=0.1


Tree=28
num_leaves=31
num_cat=0
split_feature=56 41 62 16 10 41 6 46 38 32 38 30 57 39 27 73 66 14 38 33 10 85 13 74 36 32 82 17 6 18
split_gain=1.16512 0.713638 0.958868 0.771018 1.03079 0.755611 1.2844 0.657363 0.692071 0.624076 2.40923 3.2366 0.461481 3.61883 2.639 6.96155 1.99776 1.57147 3.67753 5.64656 5.60726 2.17115 1.886 1.8411 4.16391 1.42235 2.54241 1.34555 2.5029 1.90608
threshold=0.20000004023313525 1.0505334138870241 -504.99999999999994 68.500000000000014 0.51499998569488536 0.97782695293426525 12.125000000000002 0.14525198936462405 -5.694999933242797 306.50000000000006 -201.95500183105466 57.549999237060554 0.0011579217389225962 63.500000000000007 3.120000004768372 -24.166665077209469 -42.666666030883782 9.5000000000000018 -11.709999561309813 338.50000000000006 0.9650000035762788 -2.9212980270385738 84.099998474121108 -0.83333328366279591 -1.0000000180025095e-35 417.50000000000006 -0.12139920145273207 5.0350000858306894 16.375000000000004 77.500000000000014
decision_type=2 2 2 2 2 2 2 2 2 2 2 2 2 2 2 2 2 2 2 2 2 2 2 2 2 2 2 2 2 2
left_child=12 3 7 -2 9 6 -6 -3 -9 -5 11 -11 13 -1 17 -16 -17 18 23 20 25 -19 -21 24 -15 26 -20 28 -25 -30
right_child=1 2 -4 4 5 -7 -8 8 -10 10 -12 -13 -14 14 15 16 -18 21 19 22 -22 -23 -24 27 -26 -27 -28 -29 29 -31
leaf_value=-0.0001027059492466499 0.00034366401011558299 0.0025709001534518655 0.0017971774335050544 0.0011780524244056304 0.026179959063000718 0.025384170771576467 0.003502812679960496 0.0061912205199295862 0.019310260142008654 0.05034460031355803 0.001038151886015653 -0.0031637735711410641 0.00050158610110525627 0.036539451942025201 0.046871162950992584 0.028518574953079225 -0.0024687073508938475 0.0079281431832783113 0.011192360213846108 0.053476561462649931 0.05038110409621839 9.0961805205428672e-05 0.021609077198574175 -0.0025990151413358177 0.0029811362829360762 -0.0020818960395604909 0.002493364623054928 -0.0015872097944439802 0.008398341549479443 0.050068336086613797
leaf_weight=197820 10501 112 1043 2369 29 24 180 83 78 26 156 20 19455 42 47 25 124 377 534 26 27 5667 65 65 309 279 906 1728 23 21
leaf_count=197820 10501 112 1043 2369 29 24 180 83 78 26 156 20 19455 42 47 25 124 377 534 26 27 5667 65 65 309 279 906 1728 23 21
internal_value=0 0.000956752 0.00317817 0.000737031 0.0022102 0.00857916 0.0066494 0.00845426 0.012547 0.001633 0.00696849 0.0270801 3.58362e-05 -7.7093e-06 0.001823 0.0133153 0.0027305 0.0015993 0.00313017 0.00642903 0.00516332 0.000579813 0.0307141 0.000360508 0.00699666 0.00445309 0.00571924 -0.000907478 0.00986845 0.0282863
internal_weight=0 14621 1316 13305 2804 233 209 273 161 2571 202 46 227540 208085 10265 196 149 10069 4025 1837 1746 6044 91 2188 351 1719 1440 1837 109 44
internal_count=242161 14621 1316 13305 2804 233 209 273 161 2571 202 46 227540 208085 10265 196 149 10069 4025 1837 1746 6044 91 2188 351 1719 1440 1837 109 44
is_linear=0
shrinkage=0.1


Tree=29
num_leaves=31
num_cat=0
split_feature=3 6 15 42 54 30 39 10 38 33 79 21 66 50 35 1 13 33 36 84 33 9 26 38 73 77 34 68 7 35
split_gain=1.05345 1.116 1.19454 2.53914 0.740613 0.694682 1.94042 1.81081 4.05681 4.48222 2.66798 2.15876 2.53039 2.10772 2.83454 1.99329 3.19297 2.73752 2.17282 2.12153 1.86055 2.05037 1.47343 1.42375 1.36315 1.34503 1.7478 1.00189 1.81104 1.19817
threshold=93.875000000000014 20.125000000000004 102.50000000000001 6.5000000000000009 0.029297442175447944 50.750000000000007 73.500000000000014 0.76999998092651378 -180.9649963378906 174.50000000000003 -11.416669845581053 107.25000000000001 -29.777777671813961 -0.01042758673429489 1.0000000180025095e-35 96.250000000000014 88.149997711181655 356.50000000000006 -1.0000000180025095e-35 8.8148126602172869 220.50000000000003 26.57499980926514 9.1500000953674334 -23.664999961853024 -22.277777671813961 -19.479171752929684 72.139999389648452 61.625000000000007 16.750000000000004 1.0000000180025095e-35
decision_type=2 2 2 2 2 2 2 2 2 2 2 2 2 2 2 2 2 2 2 2 2 2 2 2 2 2 2 2 2 2
left_child=1 -1 -3 -4 5 6 -2 11 -9 10 -10 15 27 14 -14 16 18 22 -8 24 -18 -22 -17 -11 -19 26 -15 -13 29 -29
right_child=4 2 3 -5 -6 -7 7 8 9 23 -12 12 13 25 -16 17 20 19 -20 -21 21 -23 -24 -25 -26 -27 -28 28 -30 -31
leaf_value=0.00031323708757117997 -0.00013505364497048909 0.0016847530176084587 0.0040931351835641894 0.044766113548539578 0.00085925359296380212 0.00077301713634279445 0.036490041745959649 -0.0046584192735071367 0.023786196599786098 0.019922187357124959 0.070542375289875531 -0.0004985137333244834 0.054510774522681132 0.039028126254677775 0.0052944785952568057 -2.0241785433984573e-05 -0.00010146133379260107 0.021628459027180306 0.012873213649436367 0.037674158986876996 0.0038137039033378042 0.038557228266165172 0.023629209564791788 -0.0063198450666207542 -0.0040489653379402381 0.0020237646940038196 0.0041974007261588297 0.033189098296626925 -0.004291939179318539 0.0084388483878014217
leaf_weight=19431 188749 6185 66 20 9813 10242 56 104 26 44 23 5180 22 25 25 1085 268 39 128 34 41 29 27 39 44 229 34 31 69 53
leaf_count=19431 188749 6185 66 20 9813 10242 56 104 26 44 23 5180 22 25 25 1085 268 39 128 34 41 29 27 39 44 229 34 31 69 53
internal_value=0 0.00068758 0.0018475 0.013552 1.0424e-05 -2.98843e-05 -7.17537e-05 0.00148903 0.0101125 0.0217501 0.045733 0.00121472 0.000266608 0.00869688 0.0283319 0.00428375 0.00946081 0.00208487 0.0200609 0.0166348 0.00369032 0.0182074 0.000553981 0.00759159 0.00801633 0.00549256 0.0189562 -0.000262952 0.00771227 0.0175729
internal_weight=0 25702 6271 86 216459 206646 196404 7655 236 132 49 7419 5668 335 47 1751 522 1229 184 117 338 70 1112 83 83 288 59 5333 153 84
internal_count=242161 25702 6271 86 216459 206646 196404 7655 236 132 49 7419 5668 335 47 1751 522 1229 184 117 338 70 1112 83 83 288 59 5333 153 84
is_linear=0
shrinkage=0.1


Tree=30
num_leaves=31
num_cat=0
split_feature=6 30 22 16 3 67 81 36 85 13 47 39 21 15 75 26 23 66 28 10 30 86 7 33 33 44 58 38 36 77
split_gain=1.76551 1.09216 1.38582 2.08214 1.95574 1.86526 1.94072 4.23293 2.69181 2.63904 1.07633 1.04586 1.65857 2.10653 2.93331 1.23711 3.22335 1.21087 1.20316 4.6192 3.94927 2.22166 1.27961 1.13326 1.24902 1.08736 1.25328 2.15727 1.07036 0.983739
threshold=23.625000000000004 27.150000572204593 0.83499997854232799 29.500000000000004 129.62500000000003 -0.94444450736045826 -17.074074745178219 -1.0000000180025095e-35 7.8888859748840341 93.649997711181655 1.5000000000000002 84.500000000000014 141.25000000000003 22.750000000000004 -8.9652776718139631 6.1499998569488534 2.1750000715255742 -32.208333969116204 27.024999618530277 0.43500000238418585 74.850002288818374 0.12962959706783297 13.750000000000002 259.50000000000006 290.50000000000006 56.250000000000007 0.0011732522398233416 -2.5949999094009395 -1.0000000180025095e-35 16.895832061767582
decision_type=2 2 2 2 2 2 2 2 2 2 2 2 2 2 2 2 2 2 2 2 2 2 2 2 2 2 2 2 2 2
left_child=10 -2 -3 -4 5 -5 7 -7 -9 -10 11 -1 13 14 25 23 -17 -18 19 22 -20 -21 -14 -15 -25 -13 -27 -28 -16 -8
right_child=1 2 3 4 -6 6 29 8 9 -11 -12 12 18 15 28 16 17 -19 20 21 -22 -23 -24 24 -26 26 27 -29 -30 -31
leaf_value=-0.00011916850790349104 0.00030142518350541423 0.00048891151996648325 0.00075194431511814766 0.0037405674077746094 0.0010017911259813112 0.0033119422576028457 0.0056243989032236825 0.019277123836128368 0.072600706083619071 0.024696467816829683 0.0012318406672536981 0.014907414683451256 -0.003539320115438279 -0.003921136134707996 0.011871668717099562 -0.0086956231086923377 0.014124313555657865 0.044812917597591879 0.0012428644461447312 0.014217779813616566 0.033221638314425948 0.042846173841668216 0.0095558130707507748 -0.0063899046625972775 0.0058088206828836976 0.00044396101459420338 0.00077562526346017149 0.01795152140956404 0.03794067223955478 0.026348487947446604
leaf_weight=194286 22089 6933 3121 1124 1059 121 502 97 23 23 6475 60 170 1568 36 57 36 20 1118 66 40 46 133 121 274 2199 195 117 28 24
leaf_count=194286 22089 6933 3121 1124 1059 121 502 97 23 23 6475 60 170 1568 36 57 36 20 1118 66 40 46 133 121 274 2199 195 117 28 24
internal_value=0 0.000729701 0.0014559 0.00255602 0.0044499 0.00635772 0.0100814 0.0170775 0.0287253 0.0486486 -3.71344e-05 -7.81007e-05 0.00119162 0.000252853 0.00212979 -0.00212949 0.00804498 0.0250845 0.00400313 0.00862298 0.00234749 0.0259759 0.00220871 -0.00271518 0.002072 0.00160338 0.00128548 0.00721659 0.0232769 0.00656998
internal_weight=0 35116 13027 6094 2973 1914 790 264 143 46 207045 200570 6284 4711 2635 2076 113 56 1573 415 1158 112 303 1963 395 2571 2511 312 64 526
internal_count=242161 35116 13027 6094 2973 1914 790 264 143 46 207045 200570 6284 4711 2635 2076 113 56 1573 415 1158 112 303 1963 395 2571 2511 312 64 526
is_linear=0
shrinkage=0.1


Tree=31
num_leaves=31
num_cat=0
split_feature=6 36 76 14 10 14 9 33 35 22 71 32 77 27 84 85 88 13 24 35 36 31 7 35 22 30 4 36 12 28
split_gain=1.11348 0.762749 0.988626 2.10782 3.11841 1.20087 1.70098 1.79584 3.53281 1.37697 6.70569 1.12131 1.20973 1.09327 2.26287 0.759803 0.714242 1.40601 1.75119 2.29109 1.53043 0.88545 1.20022 2.89871 0.940796 0.936368 1.21954 0.655391 0.873965 1.97333
threshold=22.375000000000004 -1.0000000180025095e-35 -847.42724609374989 512.50000000000011 0.50499999523162853 53.500000000000007 23.94999980926514 380.50000000000006 1.0000000180025095e-35 1.0149999856948855 -0.12500008940696714 489.50000000000006 -36.979167938232415 14.094999790191652 -18.442128181457516 -25.111113548278805 -22.500002861022946 99.149997711181655 10.750000000000002 1.0000000180025095e-35 -1.0000000180025095e-35 24.849999427795414 20.750000000000004 1.0000000180025095e-35 1.4550000429153445 31.349999427795414 93.58499908447267 -1.0000000180025095e-35 39.649999618530281 24.650000572204593
decision_type=2 2 2 2 2 2 2 2 2 2 2 2 2 2 2 2 2 2 2 2 2 2 2 2 2 2 2 2 2 2
left_child=16 -2 3 5 15 -3 7 13 -9 -8 -11 -4 -13 -7 -15 -5 17 18 -1 -20 -19 -18 27 24 -24 26 -25 -23 -29 -30
right_child=1 2 11 4 -6 6 9 8 -10 10 -12 12 -14 14 -16 -17 21 20 19 -21 -22 22 23 25 -26 -27 -28 28 29 -31
leaf_value=0.00015215445014594032 0.0011135142702083413 0.00041105761433373546 -0.00046196148112970454 0.020385967707261445 0.0421994599931199 0.00026477174313751172 0.002799316688480092 0.047582314100116492 -0.0033168659203996263 0.0013886506606082796 0.058240104874130338 0.030810430748388174 0.0046280901730060579 0.040630774581361384 0.0025713753474296119 0.00087748398560337558 -0.00020117238685196041 0.01024555375403377 0.03107137110172993 -0.0025880482597037766 0.0017334459086556881 -0.0011466563338806957 0.038743189530556693 -0.008141275626960499 0.012883890086474517 0.019352894113399091 0.016186835589232267 0.00086163294009543334 0.033846709527075296 0.0046846685743668686
leaf_weight=64720 14621 13217 14103 26 29 914 71 25 30 59 32 20 150 21 61 86 130408 268 42 39 997 796 34 87 24 24 27 882 25 323
leaf_count=64720 14621 13217 14103 26 29 914 71 25 30 59 32 20 150 21 61 86 130408 268 42 39 997 796 34 87 24 24 27 882 25 323
internal_value=0 0.000525131 0.00022688 0.00080631 0.0129736 0.00068742 0.0036987 0.0022285 0.0198191 0.0132368 0.0213804 -0.000364648 0.00770837 0.00125713 0.0123183 0.00540624 -3.36327e-05 0.000235001 0.000170545 0.014865 0.0035368 -0.000167445 0.00181199 0.00928421 0.0280428 0.00140017 -0.00237935 0.00108911 0.002536 0.00677964
internal_weight=0 43465 28844 14571 141 14430 1213 1051 55 162 91 14273 170 996 82 112 198696 66066 64801 81 1265 132630 2222 196 58 138 114 2026 1230 348
internal_count=242161 43465 28844 14571 141 14430 1213 1051 55 162 91 14273 170 996 82 112 198696 66066 64801 81 1265 132630 2222 196 58 138 114 2026 1230 348
is_linear=0
shrinkage=0.1


Tree=32
num_leaves=31
num_cat=0
split_feature=77 13 36 8 33 57 39 25 2 17 30 33 39 57 16 13 82 10 7 7 29 85 62 87 35 34 6 61 38 27
split_gain=0.65595 1.0177 1.63633 5.17081 1.33921 2.30666 0.981172 8.77234 0.95795 1.01347 1.654 1.91959 1.05401 0.810679 0.757182 0.693868 0.974772 0.660164 3.47547 1.38828 0.784265 0.768648 1.48222 0.823395 0.759519 1.17009 3.98146 1.5668 0.949721 0.689053
threshold=-27.854171752929684 99.149997711181655 -1.0000000180025095e-35 -1.4499999880790708 187.50000000000003 -0.00075182440923526872 316.50000000000006 5.9349999427795419 38.159999847412116 4.5350000858306894 57.549999237060554 180.50000000000003 120.50000000000001 0.00010563330579316245 -1.0000000180025095e-35 96.125000000000014 -0.028806590475141999 0.55500000715255748 37.250000000000007 13.750000000000002 8.5250000953674334 22.333330154418949 -4.4999999999999991 -105.14587402343749 1.0000000180025095e-35 59.004999160766609 23.625000000000004 -73.749999999999986 -15.374999999999998 0.45499999821186071
decision_type=2 2 2 2 2 2 2 2 2 2 2 2 2 2 2 2 2 2 2 2 2 2 2 2 2 2 2 2 2 2
left_child=1 13 3 4 -3 -6 7 -4 -2 -10 12 -12 -11 -1 -15 -14 -17 20 19 21 24 -19 23 -23 -16 27 -27 -26 -28 -21
right_child=8 2 6 -5 5 -7 -8 -9 9 10 11 -13 15 14 17 16 -18 18 -20 29 -22 22 -24 -25 25 26 28 -29 -30 -31
leaf_value=7.3173194068168923e-05 -0.0001112678576143591 -9.2818879832824074e-05 -5.527489909264666e-05 0.049686066125487462 0.035890100856847837 0.0010823341748780674 0.019913788618785996 0.054561473218103257 -0.0011166742431646573 0.0021681912675991142 0.030857383481980791 -0.0011055997682406624 -0.0052900036814389753 0.00032145079192288445 0.0006874163859064067 0.020167200187487262 -0.0031370283812284469 -0.00059457433122686479 0.040407417571315399 0.01618022310946669 0.00065479385096145969 0.0068127835324654981 -0.0057802455348742975 0.032054626535890356 -0.00067522893621601535 0.004825811167825063 0.019540604603860312 0.020169656563084573 0.043354965960889155 0.00061409891320344731
leaf_weight=66860 150241 165 1490 29 33 45 28 30 1443 3989 42 34 320 10720 632 28 50 483 26 105 4388 24 37 28 366 379 34 40 33 39
leaf_count=66860 150241 165 1490 29 33 45 28 30 1443 3989 42 34 320 10720 632 28 50 483 26 105 4388 24 37 28 366 379 34 40 33 39
internal_value=0 0.000281744 0.00262128 0.00977448 0.00501137 0.0158087 0.00136439 0.00102269 -6.21593e-05 0.0011871 0.00193197 0.0165582 0.00167858 0.000231171 0.000840592 -0.00322857 0.00522859 0.00168202 0.00449253 0.00318835 0.00132688 0.000979 0.00951873 0.0204045 0.00331414 0.00526259 0.00879838 0.00137845 0.0312701 0.0119644
internal_weight=0 86014 1820 272 243 78 1548 1520 156147 5906 4463 76 4387 84194 17334 398 78 6614 742 716 5872 572 89 52 1484 852 446 406 67 144
internal_count=242161 86014 1820 272 243 78 1548 1520 156147 5906 4463 76 4387 84194 17334 398 78 6614 742 716 5872 572 89 52 1484 852 446 406 67 144
is_linear=0
shrinkage=0.1


Tree=33
num_leaves=31
num_cat=0
split_feature=47 39 53 43 85 3 44 33 84 79 30 36 81 39 66 38 41 31 11 30 84 75 0 19 67 10 38 35 41 30
split_gain=1.26595 1.19372 1.35993 1.32952 1.56679 1.1796 1.2826 1.01194 1.25994 1.30584 1.1294 3.03894 0.929409 0.92002 0.894615 0.846971 3.53439 1.13382 2.50039 2.62548 1.10395 2.0629 1.0523 1.42398 1.02472 2.71684 0.899485 1.05467 0.77735 1.61949
threshold=1.5000000000000002 76.500000000000014 0.0011221333406865599 145.58499908447268 -8.4629664421081525 76.750000000000014 53.250000000000007 251.50000000000003 -9.1828699111938459 3.6041660308837895 22.94999980926514 -1.0000000180025095e-35 -9.3117308616638166 89.500000000000014 -39.99999809265136 -3.6850000619888301 0.7318994700908662 7.2249999046325692 7.3550000190734872 26.650000572204593 18.865735054016117 -20.249998092651364 99.049999237060561 2.6049998998641972 -0.222222164273262 0.56499999761581432 -62.664999008178704 1.0000000180025095e-35 0.6429719626903535 38.049999237060554
decision_type=2 2 2 2 2 2 2 2 2 2 2 2 2 2 2 2 2 2 2 2 2 2 2 2 2 2 2 2 2 2
left_child=1 5 28 7 -5 6 -1 8 9 -4 11 14 13 -12 -10 16 17 18 20 -20 -8 -22 -17 -24 26 -26 27 -19 29 -3
right_child=-2 2 3 4 -6 -7 15 -9 10 -11 12 -13 -14 -15 -16 22 -18 24 19 -21 21 -23 23 -25 25 -27 -28 -29 -30 -31
